digraph Tree {
node [shape=box, style="filled, rounded", color="black", fontname="helvetica"] ;
edge [fontname="helvetica"] ;
0 [label="please <= 0.5\ngini = 0.5\nsamples = 3479\nvalue = [2734, 2774]\nclass = 1", fillcolor="#fcfeff"] ;
1 [label="p <= 6.5\ngini = 0.48\nsamples = 2444\nvalue = [1593, 2305]\nclass = 1", fillcolor="#c2e1f7"] ;
0 -> 1 [labeldistance=2.5, labelangle=45, headlabel="True"] ;
2 [label="w <= 0.5\ngini = 0.5\nsamples = 1237\nvalue = [1060, 929]\nclass = 0", fillcolor="#fcefe7"] ;
1 -> 2 ;
3 [label="p <= 1.5\ngini = 0.45\nsamples = 430\nvalue = [434, 231]\nclass = 0", fillcolor="#f3c4a2"] ;
2 -> 3 ;
4 [label="at <= 0.5\ngini = 0.41\nsamples = 159\nvalue = [67, 162]\nclass = 1", fillcolor="#8bc6f0"] ;
3 -> 4 ;
5 [label="ect <= 1.5\ngini = 0.26\nsamples = 117\nvalue = [25, 141]\nclass = 1", fillcolor="#5caeea"] ;
4 -> 5 ;
6 [label="on <= 1.5\ngini = 0.21\nsamples = 112\nvalue = [18, 137]\nclass = 1", fillcolor="#53aae8"] ;
5 -> 6 ;
7 [label="chris <= 0.5\ngini = 0.17\nsamples = 108\nvalue = [14, 136]\nclass = 1", fillcolor="#4da7e8"] ;
6 -> 7 ;
8 [label="o <= 1.5\ngini = 0.14\nsamples = 107\nvalue = [11, 136]\nclass = 1", fillcolor="#49a5e7"] ;
7 -> 8 ;
9 [label="ce <= 0.5\ngini = 0.17\nsamples = 55\nvalue = [7, 68]\nclass = 1", fillcolor="#4da7e8"] ;
8 -> 9 ;
10 [label="a <= 6.5\ngini = 0.17\nsamples = 54\nvalue = [7, 67]\nclass = 1", fillcolor="#4ea7e8"] ;
9 -> 10 ;
11 [label="en <= 0.5\ngini = 0.13\nsamples = 53\nvalue = [5, 67]\nclass = 1", fillcolor="#48a4e7"] ;
10 -> 11 ;
12 [label="ed <= 0.5\ngini = 0.13\nsamples = 50\nvalue = [5, 64]\nclass = 1", fillcolor="#48a5e7"] ;
11 -> 12 ;
13 [label="m <= 0.5\ngini = 0.06\nsamples = 49\nvalue = [2, 64]\nclass = 1", fillcolor="#3fa0e6"] ;
12 -> 13 ;
14 [label="us <= 0.5\ngini = 0.03\nsamples = 43\nvalue = [1, 57]\nclass = 1", fillcolor="#3c9fe5"] ;
13 -> 14 ;
15 [label="gini = 0.0\nsamples = 42\nvalue = [0, 57]\nclass = 1", fillcolor="#399de5"] ;
14 -> 15 ;
16 [label="gini = 0.0\nsamples = 1\nvalue = [1, 0]\nclass = 0", fillcolor="#e58139"] ;
14 -> 16 ;
17 [label="get <= 0.5\ngini = 0.22\nsamples = 6\nvalue = [1, 7]\nclass = 1", fillcolor="#55abe9"] ;
13 -> 17 ;
18 [label="re <= 0.5\ngini = 0.32\nsamples = 4\nvalue = [1, 4]\nclass = 1", fillcolor="#6ab6ec"] ;
17 -> 18 ;
19 [label="gini = 0.0\nsamples = 3\nvalue = [0, 4]\nclass = 1", fillcolor="#399de5"] ;
18 -> 19 ;
20 [label="gini = 0.0\nsamples = 1\nvalue = [1, 0]\nclass = 0", fillcolor="#e58139"] ;
18 -> 20 ;
21 [label="gini = 0.0\nsamples = 2\nvalue = [0, 3]\nclass = 1", fillcolor="#399de5"] ;
17 -> 21 ;
22 [label="gini = 0.0\nsamples = 1\nvalue = [3, 0]\nclass = 0", fillcolor="#e58139"] ;
12 -> 22 ;
23 [label="gini = 0.0\nsamples = 3\nvalue = [0, 3]\nclass = 1", fillcolor="#399de5"] ;
11 -> 23 ;
24 [label="gini = 0.0\nsamples = 1\nvalue = [2, 0]\nclass = 0", fillcolor="#e58139"] ;
10 -> 24 ;
25 [label="gini = 0.0\nsamples = 1\nvalue = [0, 1]\nclass = 1", fillcolor="#399de5"] ;
9 -> 25 ;
26 [label="em <= 0.5\ngini = 0.1\nsamples = 52\nvalue = [4, 68]\nclass = 1", fillcolor="#45a3e7"] ;
8 -> 26 ;
27 [label="ali <= 0.5\ngini = 0.12\nsamples = 44\nvalue = [4, 58]\nclass = 1", fillcolor="#47a4e7"] ;
26 -> 27 ;
28 [label="ga <= 0.5\ngini = 0.13\nsamples = 43\nvalue = [4, 55]\nclass = 1", fillcolor="#47a4e7"] ;
27 -> 28 ;
29 [label="any <= 0.5\ngini = 0.1\nsamples = 41\nvalue = [3, 54]\nclass = 1", fillcolor="#44a2e6"] ;
28 -> 29 ;
30 [label="online <= 0.5\ngini = 0.07\nsamples = 40\nvalue = [2, 54]\nclass = 1", fillcolor="#40a1e6"] ;
29 -> 30 ;
31 [label="still <= 0.5\ngini = 0.07\nsamples = 37\nvalue = [2, 51]\nclass = 1", fillcolor="#41a1e6"] ;
30 -> 31 ;
32 [label="b <= 1.5\ngini = 0.04\nsamples = 36\nvalue = [1, 51]\nclass = 1", fillcolor="#3d9fe6"] ;
31 -> 32 ;
33 [label="st <= 0.5\ngini = 0.06\nsamples = 23\nvalue = [1, 33]\nclass = 1", fillcolor="#3fa0e6"] ;
32 -> 33 ;
34 [label="nothing <= 0.5\ngini = 0.06\nsamples = 22\nvalue = [1, 31]\nclass = 1", fillcolor="#3fa0e6"] ;
33 -> 34 ;
35 [label="re <= 1.5\ngini = 0.06\nsamples = 21\nvalue = [1, 30]\nclass = 1", fillcolor="#40a0e6"] ;
34 -> 35 ;
36 [label="gini = 0.0\nsamples = 19\nvalue = [0, 29]\nclass = 1", fillcolor="#399de5"] ;
35 -> 36 ;
37 [label="v <= 0.5\ngini = 0.5\nsamples = 2\nvalue = [1, 1]\nclass = 0", fillcolor="#ffffff"] ;
35 -> 37 ;
38 [label="gini = 0.0\nsamples = 1\nvalue = [0, 1]\nclass = 1", fillcolor="#399de5"] ;
37 -> 38 ;
39 [label="gini = 0.0\nsamples = 1\nvalue = [1, 0]\nclass = 0", fillcolor="#e58139"] ;
37 -> 39 ;
40 [label="gini = 0.0\nsamples = 1\nvalue = [0, 1]\nclass = 1", fillcolor="#399de5"] ;
34 -> 40 ;
41 [label="gini = 0.0\nsamples = 1\nvalue = [0, 2]\nclass = 1", fillcolor="#399de5"] ;
33 -> 41 ;
42 [label="gini = 0.0\nsamples = 13\nvalue = [0, 18]\nclass = 1", fillcolor="#399de5"] ;
32 -> 42 ;
43 [label="gini = 0.0\nsamples = 1\nvalue = [1, 0]\nclass = 0", fillcolor="#e58139"] ;
31 -> 43 ;
44 [label="gini = 0.0\nsamples = 3\nvalue = [0, 3]\nclass = 1", fillcolor="#399de5"] ;
30 -> 44 ;
45 [label="gini = 0.0\nsamples = 1\nvalue = [1, 0]\nclass = 0", fillcolor="#e58139"] ;
29 -> 45 ;
46 [label="again <= 0.5\ngini = 0.5\nsamples = 2\nvalue = [1, 1]\nclass = 0", fillcolor="#ffffff"] ;
28 -> 46 ;
47 [label="gini = 0.0\nsamples = 1\nvalue = [0, 1]\nclass = 1", fillcolor="#399de5"] ;
46 -> 47 ;
48 [label="gini = 0.0\nsamples = 1\nvalue = [1, 0]\nclass = 0", fillcolor="#e58139"] ;
46 -> 48 ;
49 [label="gini = 0.0\nsamples = 1\nvalue = [0, 3]\nclass = 1", fillcolor="#399de5"] ;
27 -> 49 ;
50 [label="gini = 0.0\nsamples = 8\nvalue = [0, 10]\nclass = 1", fillcolor="#399de5"] ;
26 -> 50 ;
51 [label="gini = 0.0\nsamples = 1\nvalue = [3, 0]\nclass = 0", fillcolor="#e58139"] ;
7 -> 51 ;
52 [label="j <= 2.0\ngini = 0.32\nsamples = 4\nvalue = [4, 1]\nclass = 0", fillcolor="#eca06a"] ;
6 -> 52 ;
53 [label="out <= 0.5\ngini = 0.38\nsamples = 3\nvalue = [3, 1]\nclass = 0", fillcolor="#eeab7b"] ;
52 -> 53 ;
54 [label="ti <= 1.0\ngini = 0.5\nsamples = 2\nvalue = [1, 1]\nclass = 0", fillcolor="#ffffff"] ;
53 -> 54 ;
55 [label="gini = 0.0\nsamples = 1\nvalue = [1, 0]\nclass = 0", fillcolor="#e58139"] ;
54 -> 55 ;
56 [label="gini = 0.0\nsamples = 1\nvalue = [0, 1]\nclass = 1", fillcolor="#399de5"] ;
54 -> 56 ;
57 [label="gini = 0.0\nsamples = 1\nvalue = [2, 0]\nclass = 0", fillcolor="#e58139"] ;
53 -> 57 ;
58 [label="gini = 0.0\nsamples = 1\nvalue = [1, 0]\nclass = 0", fillcolor="#e58139"] ;
52 -> 58 ;
59 [label="iv <= 0.5\ngini = 0.46\nsamples = 5\nvalue = [7, 4]\nclass = 0", fillcolor="#f4c9aa"] ;
5 -> 59 ;
60 [label="gini = 0.0\nsamples = 1\nvalue = [0, 2]\nclass = 1", fillcolor="#399de5"] ;
59 -> 60 ;
61 [label="oo <= 0.5\ngini = 0.35\nsamples = 4\nvalue = [7, 2]\nclass = 0", fillcolor="#eca572"] ;
59 -> 61 ;
62 [label="gini = 0.0\nsamples = 3\nvalue = [7, 0]\nclass = 0", fillcolor="#e58139"] ;
61 -> 62 ;
63 [label="gini = 0.0\nsamples = 1\nvalue = [0, 2]\nclass = 1", fillcolor="#399de5"] ;
61 -> 63 ;
64 [label="penis <= 0.5\ngini = 0.44\nsamples = 42\nvalue = [42, 21]\nclass = 0", fillcolor="#f2c09c"] ;
4 -> 64 ;
65 [label="g <= 3.5\ngini = 0.36\nsamples = 37\nvalue = [42, 13]\nclass = 0", fillcolor="#eda876"] ;
64 -> 65 ;
66 [label="ic <= 0.5\ngini = 0.31\nsamples = 34\nvalue = [42, 10]\nclass = 0", fillcolor="#eb9f68"] ;
65 -> 66 ;
67 [label="de <= 0.5\ngini = 0.23\nsamples = 30\nvalue = [40, 6]\nclass = 0", fillcolor="#e99457"] ;
66 -> 67 ;
68 [label="see <= 0.5\ngini = 0.28\nsamples = 22\nvalue = [30, 6]\nclass = 0", fillcolor="#ea9a61"] ;
67 -> 68 ;
69 [label="attached <= 0.5\ngini = 0.29\nsamples = 20\nvalue = [28, 6]\nclass = 0", fillcolor="#eb9c63"] ;
68 -> 69 ;
70 [label="nom <= 0.5\ngini = 0.34\nsamples = 17\nvalue = [22, 6]\nclass = 0", fillcolor="#eca36f"] ;
69 -> 70 ;
71 [label="sa <= 0.5\ngini = 0.42\nsamples = 11\nvalue = [14, 6]\nclass = 0", fillcolor="#f0b78e"] ;
70 -> 71 ;
72 [label="contract <= 0.5\ngini = 0.22\nsamples = 9\nvalue = [14, 2]\nclass = 0", fillcolor="#e99355"] ;
71 -> 72 ;
73 [label="talk <= 0.5\ngini = 0.24\nsamples = 8\nvalue = [12, 2]\nclass = 0", fillcolor="#e9965a"] ;
72 -> 73 ;
74 [label="on <= 3.5\ngini = 0.28\nsamples = 7\nvalue = [10, 2]\nclass = 0", fillcolor="#ea9a61"] ;
73 -> 74 ;
75 [label="v <= 0.5\ngini = 0.17\nsamples = 6\nvalue = [10, 1]\nclass = 0", fillcolor="#e88e4d"] ;
74 -> 75 ;
76 [label="gini = 0.0\nsamples = 5\nvalue = [10, 0]\nclass = 0", fillcolor="#e58139"] ;
75 -> 76 ;
77 [label="gini = 0.0\nsamples = 1\nvalue = [0, 1]\nclass = 1", fillcolor="#399de5"] ;
75 -> 77 ;
78 [label="gini = 0.0\nsamples = 1\nvalue = [0, 1]\nclass = 1", fillcolor="#399de5"] ;
74 -> 78 ;
79 [label="gini = 0.0\nsamples = 1\nvalue = [2, 0]\nclass = 0", fillcolor="#e58139"] ;
73 -> 79 ;
80 [label="gini = 0.0\nsamples = 1\nvalue = [2, 0]\nclass = 0", fillcolor="#e58139"] ;
72 -> 80 ;
81 [label="gini = 0.0\nsamples = 2\nvalue = [0, 4]\nclass = 1", fillcolor="#399de5"] ;
71 -> 81 ;
82 [label="gini = 0.0\nsamples = 6\nvalue = [8, 0]\nclass = 0", fillcolor="#e58139"] ;
70 -> 82 ;
83 [label="gini = 0.0\nsamples = 3\nvalue = [6, 0]\nclass = 0", fillcolor="#e58139"] ;
69 -> 83 ;
84 [label="gini = 0.0\nsamples = 2\nvalue = [2, 0]\nclass = 0", fillcolor="#e58139"] ;
68 -> 84 ;
85 [label="gini = 0.0\nsamples = 8\nvalue = [10, 0]\nclass = 0", fillcolor="#e58139"] ;
67 -> 85 ;
86 [label="day <= 0.5\ngini = 0.44\nsamples = 4\nvalue = [2, 4]\nclass = 1", fillcolor="#9ccef2"] ;
66 -> 86 ;
87 [label="ca <= 0.5\ngini = 0.5\nsamples = 3\nvalue = [2, 2]\nclass = 0", fillcolor="#ffffff"] ;
86 -> 87 ;
88 [label="gini = 0.0\nsamples = 2\nvalue = [0, 2]\nclass = 1", fillcolor="#399de5"] ;
87 -> 88 ;
89 [label="gini = 0.0\nsamples = 1\nvalue = [2, 0]\nclass = 0", fillcolor="#e58139"] ;
87 -> 89 ;
90 [label="gini = 0.0\nsamples = 1\nvalue = [0, 2]\nclass = 1", fillcolor="#399de5"] ;
86 -> 90 ;
91 [label="gini = 0.0\nsamples = 3\nvalue = [0, 3]\nclass = 1", fillcolor="#399de5"] ;
65 -> 91 ;
92 [label="gini = 0.0\nsamples = 5\nvalue = [0, 8]\nclass = 1", fillcolor="#399de5"] ;
64 -> 92 ;
93 [label="hp <= 0.5\ngini = 0.27\nsamples = 271\nvalue = [367, 69]\nclass = 0", fillcolor="#ea995e"] ;
3 -> 93 ;
94 [label="nat <= 1.5\ngini = 0.49\nsamples = 70\nvalue = [49, 69]\nclass = 1", fillcolor="#c6e3f7"] ;
93 -> 94 ;
95 [label="from <= 0.5\ngini = 0.45\nsamples = 61\nvalue = [35, 69]\nclass = 1", fillcolor="#9dcff2"] ;
94 -> 95 ;
96 [label="th <= 1.5\ngini = 0.35\nsamples = 54\nvalue = [20, 67]\nclass = 1", fillcolor="#74baed"] ;
95 -> 96 ;
97 [label="huge <= 0.5\ngini = 0.18\nsamples = 46\nvalue = [7, 64]\nclass = 1", fillcolor="#4fa8e8"] ;
96 -> 97 ;
98 [label="rm <= 0.5\ngini = 0.18\nsamples = 45\nvalue = [7, 63]\nclass = 1", fillcolor="#4fa8e8"] ;
97 -> 98 ;
99 [label="ga <= 0.5\ngini = 0.21\nsamples = 39\nvalue = [7, 53]\nclass = 1", fillcolor="#53aae8"] ;
98 -> 99 ;
100 [label="a <= 1.5\ngini = 0.16\nsamples = 38\nvalue = [5, 53]\nclass = 1", fillcolor="#4ca6e7"] ;
99 -> 100 ;
101 [label="x <= 0.5\ngini = 0.47\nsamples = 7\nvalue = [3, 5]\nclass = 1", fillcolor="#b0d8f5"] ;
100 -> 101 ;
102 [label="ls <= 1.0\ngini = 0.41\nsamples = 6\nvalue = [2, 5]\nclass = 1", fillcolor="#88c4ef"] ;
101 -> 102 ;
103 [label="s <= 1.0\ngini = 0.44\nsamples = 5\nvalue = [2, 4]\nclass = 1", fillcolor="#9ccef2"] ;
102 -> 103 ;
104 [label="gini = 0.0\nsamples = 1\nvalue = [1, 0]\nclass = 0", fillcolor="#e58139"] ;
103 -> 104 ;
105 [label="for <= 0.5\ngini = 0.32\nsamples = 4\nvalue = [1, 4]\nclass = 1", fillcolor="#6ab6ec"] ;
103 -> 105 ;
106 [label="gini = 0.0\nsamples = 1\nvalue = [0, 1]\nclass = 1", fillcolor="#399de5"] ;
105 -> 106 ;
107 [label="is <= 0.5\ngini = 0.38\nsamples = 3\nvalue = [1, 3]\nclass = 1", fillcolor="#7bbeee"] ;
105 -> 107 ;
108 [label="gini = 0.0\nsamples = 2\nvalue = [0, 3]\nclass = 1", fillcolor="#399de5"] ;
107 -> 108 ;
109 [label="gini = 0.0\nsamples = 1\nvalue = [1, 0]\nclass = 0", fillcolor="#e58139"] ;
107 -> 109 ;
110 [label="gini = 0.0\nsamples = 1\nvalue = [0, 1]\nclass = 1", fillcolor="#399de5"] ;
102 -> 110 ;
111 [label="gini = 0.0\nsamples = 1\nvalue = [1, 0]\nclass = 0", fillcolor="#e58139"] ;
101 -> 111 ;
112 [label="he <= 1.5\ngini = 0.08\nsamples = 31\nvalue = [2, 48]\nclass = 1", fillcolor="#41a1e6"] ;
100 -> 112 ;
113 [label="im <= 0.5\ngini = 0.08\nsamples = 27\nvalue = [2, 44]\nclass = 1", fillcolor="#42a1e6"] ;
112 -> 113 ;
114 [label="x <= 0.5\ngini = 0.1\nsamples = 20\nvalue = [2, 34]\nclass = 1", fillcolor="#45a3e7"] ;
113 -> 114 ;
115 [label="her <= 0.5\ngini = 0.06\nsamples = 19\nvalue = [1, 34]\nclass = 1", fillcolor="#3fa0e6"] ;
114 -> 115 ;
116 [label="nd <= 0.5\ngini = 0.07\nsamples = 17\nvalue = [1, 28]\nclass = 1", fillcolor="#40a0e6"] ;
115 -> 116 ;
117 [label="as <= 0.5\ngini = 0.08\nsamples = 13\nvalue = [1, 23]\nclass = 1", fillcolor="#42a1e6"] ;
116 -> 117 ;
118 [label="n <= 3.5\ngini = 0.12\nsamples = 8\nvalue = [1, 15]\nclass = 1", fillcolor="#46a4e7"] ;
117 -> 118 ;
119 [label="gini = 0.0\nsamples = 6\nvalue = [0, 13]\nclass = 1", fillcolor="#399de5"] ;
118 -> 119 ;
120 [label="for <= 0.5\ngini = 0.44\nsamples = 2\nvalue = [1, 2]\nclass = 1", fillcolor="#9ccef2"] ;
118 -> 120 ;
121 [label="gini = 0.0\nsamples = 1\nvalue = [1, 0]\nclass = 0", fillcolor="#e58139"] ;
120 -> 121 ;
122 [label="gini = 0.0\nsamples = 1\nvalue = [0, 2]\nclass = 1", fillcolor="#399de5"] ;
120 -> 122 ;
123 [label="gini = 0.0\nsamples = 5\nvalue = [0, 8]\nclass = 1", fillcolor="#399de5"] ;
117 -> 123 ;
124 [label="gini = 0.0\nsamples = 4\nvalue = [0, 5]\nclass = 1", fillcolor="#399de5"] ;
116 -> 124 ;
125 [label="gini = 0.0\nsamples = 2\nvalue = [0, 6]\nclass = 1", fillcolor="#399de5"] ;
115 -> 125 ;
126 [label="gini = 0.0\nsamples = 1\nvalue = [1, 0]\nclass = 0", fillcolor="#e58139"] ;
114 -> 126 ;
127 [label="gini = 0.0\nsamples = 7\nvalue = [0, 10]\nclass = 1", fillcolor="#399de5"] ;
113 -> 127 ;
128 [label="gini = 0.0\nsamples = 4\nvalue = [0, 4]\nclass = 1", fillcolor="#399de5"] ;
112 -> 128 ;
129 [label="gini = 0.0\nsamples = 1\nvalue = [2, 0]\nclass = 0", fillcolor="#e58139"] ;
99 -> 129 ;
130 [label="gini = 0.0\nsamples = 6\nvalue = [0, 10]\nclass = 1", fillcolor="#399de5"] ;
98 -> 130 ;
131 [label="gini = 0.0\nsamples = 1\nvalue = [0, 1]\nclass = 1", fillcolor="#399de5"] ;
97 -> 131 ;
132 [label="cal <= 0.5\ngini = 0.3\nsamples = 8\nvalue = [13, 3]\nclass = 0", fillcolor="#eb9e67"] ;
96 -> 132 ;
133 [label="nd <= 1.0\ngini = 0.4\nsamples = 6\nvalue = [8, 3]\nclass = 0", fillcolor="#efb083"] ;
132 -> 133 ;
134 [label="gini = 0.0\nsamples = 4\nvalue = [7, 0]\nclass = 0", fillcolor="#e58139"] ;
133 -> 134 ;
135 [label="r <= 10.0\ngini = 0.38\nsamples = 2\nvalue = [1, 3]\nclass = 1", fillcolor="#7bbeee"] ;
133 -> 135 ;
136 [label="gini = 0.0\nsamples = 1\nvalue = [1, 0]\nclass = 0", fillcolor="#e58139"] ;
135 -> 136 ;
137 [label="gini = 0.0\nsamples = 1\nvalue = [0, 3]\nclass = 1", fillcolor="#399de5"] ;
135 -> 137 ;
138 [label="gini = 0.0\nsamples = 2\nvalue = [5, 0]\nclass = 0", fillcolor="#e58139"] ;
132 -> 138 ;
139 [label="o <= 5.0\ngini = 0.21\nsamples = 7\nvalue = [15, 2]\nclass = 0", fillcolor="#e89253"] ;
95 -> 139 ;
140 [label="gini = 0.0\nsamples = 1\nvalue = [0, 1]\nclass = 1", fillcolor="#399de5"] ;
139 -> 140 ;
141 [label="ma <= 0.5\ngini = 0.12\nsamples = 6\nvalue = [15, 1]\nclass = 0", fillcolor="#e78946"] ;
139 -> 141 ;
142 [label="l <= 4.5\ngini = 0.22\nsamples = 4\nvalue = [7, 1]\nclass = 0", fillcolor="#e99355"] ;
141 -> 142 ;
143 [label="gini = 0.0\nsamples = 2\nvalue = [2, 0]\nclass = 0", fillcolor="#e58139"] ;
142 -> 143 ;
144 [label="ut <= 0.5\ngini = 0.28\nsamples = 2\nvalue = [5, 1]\nclass = 0", fillcolor="#ea9a61"] ;
142 -> 144 ;
145 [label="gini = 0.0\nsamples = 1\nvalue = [0, 1]\nclass = 1", fillcolor="#399de5"] ;
144 -> 145 ;
146 [label="gini = 0.0\nsamples = 1\nvalue = [5, 0]\nclass = 0", fillcolor="#e58139"] ;
144 -> 146 ;
147 [label="gini = 0.0\nsamples = 2\nvalue = [8, 0]\nclass = 0", fillcolor="#e58139"] ;
141 -> 147 ;
148 [label="gini = 0.0\nsamples = 9\nvalue = [14, 0]\nclass = 0", fillcolor="#e58139"] ;
94 -> 148 ;
149 [label="gini = 0.0\nsamples = 201\nvalue = [318, 0]\nclass = 0", fillcolor="#e58139"] ;
93 -> 149 ;
150 [label="ti <= 3.5\ngini = 0.5\nsamples = 807\nvalue = [626, 698]\nclass = 1", fillcolor="#ebf5fc"] ;
2 -> 150 ;
151 [label="a <= 7.5\ngini = 0.49\nsamples = 735\nvalue = [531, 675]\nclass = 1", fillcolor="#d5eaf9"] ;
150 -> 151 ;
152 [label="will <= 0.5\ngini = 0.4\nsamples = 231\nvalue = [103, 276]\nclass = 1", fillcolor="#83c2ef"] ;
151 -> 152 ;
153 [label="november <= 0.5\ngini = 0.36\nsamples = 221\nvalue = [86, 276]\nclass = 1", fillcolor="#77bced"] ;
152 -> 153 ;
154 [label="mi <= 1.5\ngini = 0.35\nsamples = 219\nvalue = [82, 276]\nclass = 1", fillcolor="#74baed"] ;
153 -> 154 ;
155 [label="spot <= 0.5\ngini = 0.34\nsamples = 217\nvalue = [77, 276]\nclass = 1", fillcolor="#70b8ec"] ;
154 -> 155 ;
156 [label="meter <= 0.5\ngini = 0.33\nsamples = 215\nvalue = [73, 276]\nclass = 1", fillcolor="#6db7ec"] ;
155 -> 156 ;
157 [label="sorry <= 0.5\ngini = 0.28\nsamples = 203\nvalue = [57, 276]\nclass = 1", fillcolor="#62b1ea"] ;
156 -> 157 ;
158 [label="sum <= 0.5\ngini = 0.26\nsamples = 200\nvalue = [51, 276]\nclass = 1", fillcolor="#5eafea"] ;
157 -> 158 ;
159 [label="run <= 0.5\ngini = 0.24\nsamples = 198\nvalue = [46, 276]\nclass = 1", fillcolor="#5aade9"] ;
158 -> 159 ;
160 [label="go <= 0.5\ngini = 0.23\nsamples = 197\nvalue = [42, 276]\nclass = 1", fillcolor="#57ace9"] ;
159 -> 160 ;
161 [label="da <= 0.5\ngini = 0.18\nsamples = 187\nvalue = [30, 267]\nclass = 1", fillcolor="#4fa8e8"] ;
160 -> 161 ;
162 [label="see <= 1.5\ngini = 0.09\nsamples = 163\nvalue = [12, 241]\nclass = 1", fillcolor="#43a2e6"] ;
161 -> 162 ;
163 [label="no <= 0.5\ngini = 0.07\nsamples = 162\nvalue = [9, 241]\nclass = 1", fillcolor="#40a1e6"] ;
162 -> 163 ;
164 [label="la <= 0.5\ngini = 0.06\nsamples = 119\nvalue = [6, 185]\nclass = 1", fillcolor="#3fa0e6"] ;
163 -> 164 ;
165 [label="new <= 0.5\ngini = 0.04\nsamples = 110\nvalue = [4, 176]\nclass = 1", fillcolor="#3d9fe6"] ;
164 -> 165 ;
166 [label="d <= 1.5\ngini = 0.02\nsamples = 104\nvalue = [2, 172]\nclass = 1", fillcolor="#3b9ee5"] ;
165 -> 166 ;
167 [label="le <= 0.5\ngini = 0.03\nsamples = 77\nvalue = [2, 121]\nclass = 1", fillcolor="#3c9fe5"] ;
166 -> 167 ;
168 [label="ve <= 0.5\ngini = 0.04\nsamples = 60\nvalue = [2, 95]\nclass = 1", fillcolor="#3d9fe6"] ;
167 -> 168 ;
169 [label="to <= 0.5\ngini = 0.09\nsamples = 27\nvalue = [2, 42]\nclass = 1", fillcolor="#42a2e6"] ;
168 -> 169 ;
170 [label="operation <= 0.5\ngini = 0.05\nsamples = 22\nvalue = [1, 36]\nclass = 1", fillcolor="#3ea0e6"] ;
169 -> 170 ;
171 [label="gini = 0.0\nsamples = 21\nvalue = [0, 36]\nclass = 1", fillcolor="#399de5"] ;
170 -> 171 ;
172 [label="gini = 0.0\nsamples = 1\nvalue = [1, 0]\nclass = 0", fillcolor="#e58139"] ;
170 -> 172 ;
173 [label="carbide <= 0.5\ngini = 0.24\nsamples = 5\nvalue = [1, 6]\nclass = 1", fillcolor="#5aade9"] ;
169 -> 173 ;
174 [label="gini = 0.0\nsamples = 4\nvalue = [0, 6]\nclass = 1", fillcolor="#399de5"] ;
173 -> 174 ;
175 [label="gini = 0.0\nsamples = 1\nvalue = [1, 0]\nclass = 0", fillcolor="#e58139"] ;
173 -> 175 ;
176 [label="gini = 0.0\nsamples = 33\nvalue = [0, 53]\nclass = 1", fillcolor="#399de5"] ;
168 -> 176 ;
177 [label="gini = 0.0\nsamples = 17\nvalue = [0, 26]\nclass = 1", fillcolor="#399de5"] ;
167 -> 177 ;
178 [label="gini = 0.0\nsamples = 27\nvalue = [0, 51]\nclass = 1", fillcolor="#399de5"] ;
166 -> 178 ;
179 [label="d <= 1.5\ngini = 0.44\nsamples = 6\nvalue = [2, 4]\nclass = 1", fillcolor="#9ccef2"] ;
165 -> 179 ;
180 [label="gini = 0.0\nsamples = 2\nvalue = [2, 0]\nclass = 0", fillcolor="#e58139"] ;
179 -> 180 ;
181 [label="gini = 0.0\nsamples = 4\nvalue = [0, 4]\nclass = 1", fillcolor="#399de5"] ;
179 -> 181 ;
182 [label="co <= 0.5\ngini = 0.3\nsamples = 9\nvalue = [2, 9]\nclass = 1", fillcolor="#65b3eb"] ;
164 -> 182 ;
183 [label="laptop <= 0.5\ngini = 0.18\nsamples = 8\nvalue = [1, 9]\nclass = 1", fillcolor="#4fa8e8"] ;
182 -> 183 ;
184 [label="window <= 0.5\ngini = 0.32\nsamples = 5\nvalue = [1, 4]\nclass = 1", fillcolor="#6ab6ec"] ;
183 -> 184 ;
185 [label="kin <= 0.5\ngini = 0.38\nsamples = 4\nvalue = [1, 3]\nclass = 1", fillcolor="#7bbeee"] ;
184 -> 185 ;
186 [label="gini = 0.0\nsamples = 3\nvalue = [0, 3]\nclass = 1", fillcolor="#399de5"] ;
185 -> 186 ;
187 [label="gini = 0.0\nsamples = 1\nvalue = [1, 0]\nclass = 0", fillcolor="#e58139"] ;
185 -> 187 ;
188 [label="gini = 0.0\nsamples = 1\nvalue = [0, 1]\nclass = 1", fillcolor="#399de5"] ;
184 -> 188 ;
189 [label="gini = 0.0\nsamples = 3\nvalue = [0, 5]\nclass = 1", fillcolor="#399de5"] ;
183 -> 189 ;
190 [label="gini = 0.0\nsamples = 1\nvalue = [1, 0]\nclass = 0", fillcolor="#e58139"] ;
182 -> 190 ;
191 [label="august <= 0.5\ngini = 0.1\nsamples = 43\nvalue = [3, 56]\nclass = 1", fillcolor="#44a2e6"] ;
163 -> 191 ;
192 [label="ooking <= 0.5\ngini = 0.03\nsamples = 42\nvalue = [1, 56]\nclass = 1", fillcolor="#3d9fe5"] ;
191 -> 192 ;
193 [label="gini = 0.0\nsamples = 41\nvalue = [0, 56]\nclass = 1", fillcolor="#399de5"] ;
192 -> 193 ;
194 [label="gini = 0.0\nsamples = 1\nvalue = [1, 0]\nclass = 0", fillcolor="#e58139"] ;
192 -> 194 ;
195 [label="gini = 0.0\nsamples = 1\nvalue = [2, 0]\nclass = 0", fillcolor="#e58139"] ;
191 -> 195 ;
196 [label="gini = 0.0\nsamples = 1\nvalue = [3, 0]\nclass = 0", fillcolor="#e58139"] ;
162 -> 196 ;
197 [label="that <= 0.5\ngini = 0.48\nsamples = 24\nvalue = [18, 26]\nclass = 1", fillcolor="#c2e1f7"] ;
161 -> 197 ;
198 [label="date <= 0.5\ngini = 0.47\nsamples = 23\nvalue = [16, 26]\nclass = 1", fillcolor="#b3d9f5"] ;
197 -> 198 ;
199 [label="one <= 0.5\ngini = 0.42\nsamples = 18\nvalue = [10, 23]\nclass = 1", fillcolor="#8fc8f0"] ;
198 -> 199 ;
200 [label="son <= 0.5\ngini = 0.4\nsamples = 17\nvalue = [9, 23]\nclass = 1", fillcolor="#86c3ef"] ;
199 -> 200 ;
201 [label="g <= 3.5\ngini = 0.44\nsamples = 15\nvalue = [9, 19]\nclass = 1", fillcolor="#97cbf1"] ;
200 -> 201 ;
202 [label="ea <= 0.5\ngini = 0.48\nsamples = 13\nvalue = [9, 13]\nclass = 1", fillcolor="#c2e1f7"] ;
201 -> 202 ;
203 [label="put <= 0.5\ngini = 0.4\nsamples = 11\nvalue = [5, 13]\nclass = 1", fillcolor="#85c3ef"] ;
202 -> 203 ;
204 [label="u <= 3.5\ngini = 0.36\nsamples = 10\nvalue = [4, 13]\nclass = 1", fillcolor="#76bbed"] ;
203 -> 204 ;
205 [label="p <= 1.5\ngini = 0.48\nsamples = 6\nvalue = [4, 6]\nclass = 1", fillcolor="#bddef6"] ;
204 -> 205 ;
206 [label="b <= 3.0\ngini = 0.24\nsamples = 4\nvalue = [1, 6]\nclass = 1", fillcolor="#5aade9"] ;
205 -> 206 ;
207 [label="gini = 0.0\nsamples = 3\nvalue = [0, 6]\nclass = 1", fillcolor="#399de5"] ;
206 -> 207 ;
208 [label="gini = 0.0\nsamples = 1\nvalue = [1, 0]\nclass = 0", fillcolor="#e58139"] ;
206 -> 208 ;
209 [label="gini = 0.0\nsamples = 2\nvalue = [3, 0]\nclass = 0", fillcolor="#e58139"] ;
205 -> 209 ;
210 [label="gini = 0.0\nsamples = 4\nvalue = [0, 7]\nclass = 1", fillcolor="#399de5"] ;
204 -> 210 ;
211 [label="gini = 0.0\nsamples = 1\nvalue = [1, 0]\nclass = 0", fillcolor="#e58139"] ;
203 -> 211 ;
212 [label="gini = 0.0\nsamples = 2\nvalue = [4, 0]\nclass = 0", fillcolor="#e58139"] ;
202 -> 212 ;
213 [label="gini = 0.0\nsamples = 2\nvalue = [0, 6]\nclass = 1", fillcolor="#399de5"] ;
201 -> 213 ;
214 [label="gini = 0.0\nsamples = 2\nvalue = [0, 4]\nclass = 1", fillcolor="#399de5"] ;
200 -> 214 ;
215 [label="gini = 0.0\nsamples = 1\nvalue = [1, 0]\nclass = 0", fillcolor="#e58139"] ;
199 -> 215 ;
216 [label="b <= 2.0\ngini = 0.44\nsamples = 5\nvalue = [6, 3]\nclass = 0", fillcolor="#f2c09c"] ;
198 -> 216 ;
217 [label="ma <= 0.5\ngini = 0.48\nsamples = 3\nvalue = [2, 3]\nclass = 1", fillcolor="#bddef6"] ;
216 -> 217 ;
218 [label="no <= 1.0\ngini = 0.44\nsamples = 2\nvalue = [2, 1]\nclass = 0", fillcolor="#f2c09c"] ;
217 -> 218 ;
219 [label="gini = 0.0\nsamples = 1\nvalue = [0, 1]\nclass = 1", fillcolor="#399de5"] ;
218 -> 219 ;
220 [label="gini = 0.0\nsamples = 1\nvalue = [2, 0]\nclass = 0", fillcolor="#e58139"] ;
218 -> 220 ;
221 [label="gini = 0.0\nsamples = 1\nvalue = [0, 2]\nclass = 1", fillcolor="#399de5"] ;
217 -> 221 ;
222 [label="gini = 0.0\nsamples = 2\nvalue = [4, 0]\nclass = 0", fillcolor="#e58139"] ;
216 -> 222 ;
223 [label="gini = 0.0\nsamples = 1\nvalue = [2, 0]\nclass = 0", fillcolor="#e58139"] ;
197 -> 223 ;
224 [label="p <= 2.5\ngini = 0.49\nsamples = 10\nvalue = [12, 9]\nclass = 0", fillcolor="#f8e0ce"] ;
160 -> 224 ;
225 [label="gini = 0.0\nsamples = 6\nvalue = [12, 0]\nclass = 0", fillcolor="#e58139"] ;
224 -> 225 ;
226 [label="gini = 0.0\nsamples = 4\nvalue = [0, 9]\nclass = 1", fillcolor="#399de5"] ;
224 -> 226 ;
227 [label="gini = 0.0\nsamples = 1\nvalue = [4, 0]\nclass = 0", fillcolor="#e58139"] ;
159 -> 227 ;
228 [label="gini = 0.0\nsamples = 2\nvalue = [5, 0]\nclass = 0", fillcolor="#e58139"] ;
158 -> 228 ;
229 [label="gini = 0.0\nsamples = 3\nvalue = [6, 0]\nclass = 0", fillcolor="#e58139"] ;
157 -> 229 ;
230 [label="gini = 0.0\nsamples = 12\nvalue = [16, 0]\nclass = 0", fillcolor="#e58139"] ;
156 -> 230 ;
231 [label="gini = 0.0\nsamples = 2\nvalue = [4, 0]\nclass = 0", fillcolor="#e58139"] ;
155 -> 231 ;
232 [label="gini = 0.0\nsamples = 2\nvalue = [5, 0]\nclass = 0", fillcolor="#e58139"] ;
154 -> 232 ;
233 [label="gini = 0.0\nsamples = 2\nvalue = [4, 0]\nclass = 0", fillcolor="#e58139"] ;
153 -> 233 ;
234 [label="gini = 0.0\nsamples = 10\nvalue = [17, 0]\nclass = 0", fillcolor="#e58139"] ;
152 -> 234 ;
235 [label="real <= 0.5\ngini = 0.5\nsamples = 504\nvalue = [428, 399]\nclass = 0", fillcolor="#fdf6f2"] ;
151 -> 235 ;
236 [label="energy <= 0.5\ngini = 0.5\nsamples = 484\nvalue = [424, 368]\nclass = 0", fillcolor="#fceee5"] ;
235 -> 236 ;
237 [label="dr <= 0.5\ngini = 0.5\nsamples = 449\nvalue = [363, 367]\nclass = 1", fillcolor="#fdfeff"] ;
236 -> 237 ;
238 [label="nom <= 0.5\ngini = 0.5\nsamples = 399\nvalue = [342, 305]\nclass = 0", fillcolor="#fcf1ea"] ;
237 -> 238 ;
239 [label="than <= 0.5\ngini = 0.5\nsamples = 344\nvalue = [256, 302]\nclass = 1", fillcolor="#e1f0fb"] ;
238 -> 239 ;
240 [label="january <= 0.5\ngini = 0.46\nsamples = 280\nvalue = [165, 289]\nclass = 1", fillcolor="#aad5f4"] ;
239 -> 240 ;
241 [label="ea <= 2.5\ngini = 0.45\nsamples = 272\nvalue = [148, 289]\nclass = 1", fillcolor="#9ecff2"] ;
240 -> 241 ;
242 [label="subject <= 0.5\ngini = 0.41\nsamples = 238\nvalue = [110, 270]\nclass = 1", fillcolor="#8ac5f0"] ;
241 -> 242 ;
243 [label="el <= 0.5\ngini = 0.39\nsamples = 229\nvalue = [97, 270]\nclass = 1", fillcolor="#80c0ee"] ;
242 -> 243 ;
244 [label="week <= 0.5\ngini = 0.46\nsamples = 110\nvalue = [66, 119]\nclass = 1", fillcolor="#a7d3f3"] ;
243 -> 244 ;
245 [label="gas <= 0.5\ngini = 0.42\nsamples = 102\nvalue = [52, 118]\nclass = 1", fillcolor="#90c8f0"] ;
244 -> 245 ;
246 [label="y <= 1.5\ngini = 0.39\nsamples = 97\nvalue = [41, 116]\nclass = 1", fillcolor="#7fc0ee"] ;
245 -> 246 ;
247 [label="port <= 0.5\ngini = 0.5\nsamples = 24\nvalue = [21, 18]\nclass = 0", fillcolor="#fbede3"] ;
246 -> 247 ;
248 [label="q <= 0.5\ngini = 0.5\nsamples = 21\nvalue = [16, 18]\nclass = 1", fillcolor="#e9f4fc"] ;
247 -> 248 ;
249 [label="enron <= 0.5\ngini = 0.47\nsamples = 18\nvalue = [11, 18]\nclass = 1", fillcolor="#b2d9f5"] ;
248 -> 249 ;
250 [label="ei <= 0.5\ngini = 0.3\nsamples = 14\nvalue = [4, 18]\nclass = 1", fillcolor="#65b3eb"] ;
249 -> 250 ;
251 [label="red <= 0.5\ngini = 0.18\nsamples = 12\nvalue = [2, 18]\nclass = 1", fillcolor="#4fa8e8"] ;
250 -> 251 ;
252 [label="gini = 0.0\nsamples = 11\nvalue = [0, 18]\nclass = 1", fillcolor="#399de5"] ;
251 -> 252 ;
253 [label="gini = 0.0\nsamples = 1\nvalue = [2, 0]\nclass = 0", fillcolor="#e58139"] ;
251 -> 253 ;
254 [label="gini = 0.0\nsamples = 2\nvalue = [2, 0]\nclass = 0", fillcolor="#e58139"] ;
250 -> 254 ;
255 [label="gini = 0.0\nsamples = 4\nvalue = [7, 0]\nclass = 0", fillcolor="#e58139"] ;
249 -> 255 ;
256 [label="gini = 0.0\nsamples = 3\nvalue = [5, 0]\nclass = 0", fillcolor="#e58139"] ;
248 -> 256 ;
257 [label="gini = 0.0\nsamples = 3\nvalue = [5, 0]\nclass = 0", fillcolor="#e58139"] ;
247 -> 257 ;
258 [label="his <= 0.5\ngini = 0.28\nsamples = 73\nvalue = [20, 98]\nclass = 1", fillcolor="#61b1ea"] ;
246 -> 258 ;
259 [label="here <= 0.5\ngini = 0.19\nsamples = 63\nvalue = [11, 92]\nclass = 1", fillcolor="#51a9e8"] ;
258 -> 259 ;
260 [label="for <= 2.5\ngini = 0.13\nsamples = 44\nvalue = [5, 67]\nclass = 1", fillcolor="#48a4e7"] ;
259 -> 260 ;
261 [label="u <= 6.5\ngini = 0.08\nsamples = 43\nvalue = [3, 67]\nclass = 1", fillcolor="#42a1e6"] ;
260 -> 261 ;
262 [label="want <= 0.5\ngini = 0.13\nsamples = 24\nvalue = [3, 40]\nclass = 1", fillcolor="#48a4e7"] ;
261 -> 262 ;
263 [label="ur <= 0.5\ngini = 0.05\nsamples = 21\nvalue = [1, 38]\nclass = 1", fillcolor="#3ea0e6"] ;
262 -> 263 ;
264 [label="gini = 0.0\nsamples = 8\nvalue = [0, 16]\nclass = 1", fillcolor="#399de5"] ;
263 -> 264 ;
265 [label="purchase <= 0.5\ngini = 0.08\nsamples = 13\nvalue = [1, 22]\nclass = 1", fillcolor="#42a1e6"] ;
263 -> 265 ;
266 [label="gini = 0.0\nsamples = 12\nvalue = [0, 22]\nclass = 1", fillcolor="#399de5"] ;
265 -> 266 ;
267 [label="gini = 0.0\nsamples = 1\nvalue = [1, 0]\nclass = 0", fillcolor="#e58139"] ;
265 -> 267 ;
268 [label="fl <= 1.0\ngini = 0.5\nsamples = 3\nvalue = [2, 2]\nclass = 0", fillcolor="#ffffff"] ;
262 -> 268 ;
269 [label="on <= 3.0\ngini = 0.44\nsamples = 2\nvalue = [2, 1]\nclass = 0", fillcolor="#f2c09c"] ;
268 -> 269 ;
270 [label="gini = 0.0\nsamples = 1\nvalue = [0, 1]\nclass = 1", fillcolor="#399de5"] ;
269 -> 270 ;
271 [label="gini = 0.0\nsamples = 1\nvalue = [2, 0]\nclass = 0", fillcolor="#e58139"] ;
269 -> 271 ;
272 [label="gini = 0.0\nsamples = 1\nvalue = [0, 1]\nclass = 1", fillcolor="#399de5"] ;
268 -> 272 ;
273 [label="gini = 0.0\nsamples = 19\nvalue = [0, 27]\nclass = 1", fillcolor="#399de5"] ;
261 -> 273 ;
274 [label="gini = 0.0\nsamples = 1\nvalue = [2, 0]\nclass = 0", fillcolor="#e58139"] ;
260 -> 274 ;
275 [label="go <= 0.5\ngini = 0.31\nsamples = 19\nvalue = [6, 25]\nclass = 1", fillcolor="#69b5eb"] ;
259 -> 275 ;
276 [label="k <= 1.5\ngini = 0.2\nsamples = 17\nvalue = [3, 24]\nclass = 1", fillcolor="#52a9e8"] ;
275 -> 276 ;
277 [label="i <= 5.0\ngini = 0.15\nsamples = 14\nvalue = [2, 22]\nclass = 1", fillcolor="#4ba6e7"] ;
276 -> 277 ;
278 [label="gini = 0.0\nsamples = 1\nvalue = [2, 0]\nclass = 0", fillcolor="#e58139"] ;
277 -> 278 ;
279 [label="gini = 0.0\nsamples = 13\nvalue = [0, 22]\nclass = 1", fillcolor="#399de5"] ;
277 -> 279 ;
280 [label="las <= 0.5\ngini = 0.44\nsamples = 3\nvalue = [1, 2]\nclass = 1", fillcolor="#9ccef2"] ;
276 -> 280 ;
281 [label="gini = 0.0\nsamples = 2\nvalue = [0, 2]\nclass = 1", fillcolor="#399de5"] ;
280 -> 281 ;
282 [label="gini = 0.0\nsamples = 1\nvalue = [1, 0]\nclass = 0", fillcolor="#e58139"] ;
280 -> 282 ;
283 [label="am <= 1.5\ngini = 0.38\nsamples = 2\nvalue = [3, 1]\nclass = 0", fillcolor="#eeab7b"] ;
275 -> 283 ;
284 [label="gini = 0.0\nsamples = 1\nvalue = [3, 0]\nclass = 0", fillcolor="#e58139"] ;
283 -> 284 ;
285 [label="gini = 0.0\nsamples = 1\nvalue = [0, 1]\nclass = 1", fillcolor="#399de5"] ;
283 -> 285 ;
286 [label="serve <= 0.5\ngini = 0.48\nsamples = 10\nvalue = [9, 6]\nclass = 0", fillcolor="#f6d5bd"] ;
258 -> 286 ;
287 [label="noon <= 0.5\ngini = 0.5\nsamples = 9\nvalue = [6, 6]\nclass = 0", fillcolor="#ffffff"] ;
286 -> 287 ;
288 [label="rd <= 0.5\ngini = 0.44\nsamples = 8\nvalue = [3, 6]\nclass = 1", fillcolor="#9ccef2"] ;
287 -> 288 ;
289 [label="he <= 5.0\ngini = 0.38\nsamples = 7\nvalue = [2, 6]\nclass = 1", fillcolor="#7bbeee"] ;
288 -> 289 ;
290 [label="do <= 0.5\ngini = 0.24\nsamples = 6\nvalue = [1, 6]\nclass = 1", fillcolor="#5aade9"] ;
289 -> 290 ;
291 [label="monitor <= 1.0\ngini = 0.5\nsamples = 2\nvalue = [1, 1]\nclass = 0", fillcolor="#ffffff"] ;
290 -> 291 ;
292 [label="gini = 0.0\nsamples = 1\nvalue = [0, 1]\nclass = 1", fillcolor="#399de5"] ;
291 -> 292 ;
293 [label="gini = 0.0\nsamples = 1\nvalue = [1, 0]\nclass = 0", fillcolor="#e58139"] ;
291 -> 293 ;
294 [label="gini = 0.0\nsamples = 4\nvalue = [0, 5]\nclass = 1", fillcolor="#399de5"] ;
290 -> 294 ;
295 [label="gini = 0.0\nsamples = 1\nvalue = [1, 0]\nclass = 0", fillcolor="#e58139"] ;
289 -> 295 ;
296 [label="gini = 0.0\nsamples = 1\nvalue = [1, 0]\nclass = 0", fillcolor="#e58139"] ;
288 -> 296 ;
297 [label="gini = 0.0\nsamples = 1\nvalue = [3, 0]\nclass = 0", fillcolor="#e58139"] ;
287 -> 297 ;
298 [label="gini = 0.0\nsamples = 1\nvalue = [3, 0]\nclass = 0", fillcolor="#e58139"] ;
286 -> 298 ;
299 [label="our <= 1.0\ngini = 0.26\nsamples = 5\nvalue = [11, 2]\nclass = 0", fillcolor="#ea985d"] ;
245 -> 299 ;
300 [label="gini = 0.0\nsamples = 4\nvalue = [11, 0]\nclass = 0", fillcolor="#e58139"] ;
299 -> 300 ;
301 [label="gini = 0.0\nsamples = 1\nvalue = [0, 2]\nclass = 1", fillcolor="#399de5"] ;
299 -> 301 ;
302 [label="u <= 8.5\ngini = 0.12\nsamples = 8\nvalue = [14, 1]\nclass = 0", fillcolor="#e78a47"] ;
244 -> 302 ;
303 [label="l <= 14.0\ngini = 0.24\nsamples = 4\nvalue = [6, 1]\nclass = 0", fillcolor="#e9965a"] ;
302 -> 303 ;
304 [label="gini = 0.0\nsamples = 3\nvalue = [6, 0]\nclass = 0", fillcolor="#e58139"] ;
303 -> 304 ;
305 [label="gini = 0.0\nsamples = 1\nvalue = [0, 1]\nclass = 1", fillcolor="#399de5"] ;
303 -> 305 ;
306 [label="gini = 0.0\nsamples = 4\nvalue = [8, 0]\nclass = 0", fillcolor="#e58139"] ;
302 -> 306 ;
307 [label="but <= 0.5\ngini = 0.28\nsamples = 119\nvalue = [31, 151]\nclass = 1", fillcolor="#62b1ea"] ;
243 -> 307 ;
308 [label="am <= 2.5\ngini = 0.25\nsamples = 111\nvalue = [25, 146]\nclass = 1", fillcolor="#5baee9"] ;
307 -> 308 ;
309 [label="old <= 0.5\ngini = 0.23\nsamples = 110\nvalue = [22, 146]\nclass = 1", fillcolor="#57ace9"] ;
308 -> 309 ;
310 [label="sale <= 0.5\ngini = 0.2\nsamples = 108\nvalue = [19, 146]\nclass = 1", fillcolor="#53aae8"] ;
309 -> 310 ;
311 [label="was <= 0.5\ngini = 0.18\nsamples = 106\nvalue = [16, 146]\nclass = 1", fillcolor="#4fa8e8"] ;
310 -> 311 ;
312 [label="n <= 4.5\ngini = 0.15\nsamples = 103\nvalue = [13, 144]\nclass = 1", fillcolor="#4ba6e7"] ;
311 -> 312 ;
313 [label="mb <= 0.5\ngini = 0.28\nsamples = 4\nvalue = [5, 1]\nclass = 0", fillcolor="#ea9a61"] ;
312 -> 313 ;
314 [label="gini = 0.0\nsamples = 3\nvalue = [5, 0]\nclass = 0", fillcolor="#e58139"] ;
313 -> 314 ;
315 [label="gini = 0.0\nsamples = 1\nvalue = [0, 1]\nclass = 1", fillcolor="#399de5"] ;
313 -> 315 ;
316 [label="t <= 15.5\ngini = 0.1\nsamples = 99\nvalue = [8, 143]\nclass = 1", fillcolor="#44a2e6"] ;
312 -> 316 ;
317 [label="lp <= 0.5\ngini = 0.2\nsamples = 34\nvalue = [6, 48]\nclass = 1", fillcolor="#52a9e8"] ;
316 -> 317 ;
318 [label="word <= 0.5\ngini = 0.08\nsamples = 32\nvalue = [2, 47]\nclass = 1", fillcolor="#41a1e6"] ;
317 -> 318 ;
319 [label="enter <= 0.5\ngini = 0.04\nsamples = 30\nvalue = [1, 46]\nclass = 1", fillcolor="#3d9fe6"] ;
318 -> 319 ;
320 [label="gini = 0.0\nsamples = 29\nvalue = [0, 46]\nclass = 1", fillcolor="#399de5"] ;
319 -> 320 ;
321 [label="gini = 0.0\nsamples = 1\nvalue = [1, 0]\nclass = 0", fillcolor="#e58139"] ;
319 -> 321 ;
322 [label="here <= 1.0\ngini = 0.5\nsamples = 2\nvalue = [1, 1]\nclass = 0", fillcolor="#ffffff"] ;
318 -> 322 ;
323 [label="gini = 0.0\nsamples = 1\nvalue = [0, 1]\nclass = 1", fillcolor="#399de5"] ;
322 -> 323 ;
324 [label="gini = 0.0\nsamples = 1\nvalue = [1, 0]\nclass = 0", fillcolor="#e58139"] ;
322 -> 324 ;
325 [label="r <= 14.0\ngini = 0.32\nsamples = 2\nvalue = [4, 1]\nclass = 0", fillcolor="#eca06a"] ;
317 -> 325 ;
326 [label="gini = 0.0\nsamples = 1\nvalue = [4, 0]\nclass = 0", fillcolor="#e58139"] ;
325 -> 326 ;
327 [label="gini = 0.0\nsamples = 1\nvalue = [0, 1]\nclass = 1", fillcolor="#399de5"] ;
325 -> 327 ;
328 [label="da <= 2.5\ngini = 0.04\nsamples = 65\nvalue = [2, 95]\nclass = 1", fillcolor="#3d9fe6"] ;
316 -> 328 ;
329 [label="equistar <= 1.0\ngini = 0.02\nsamples = 63\nvalue = [1, 94]\nclass = 1", fillcolor="#3b9ee5"] ;
328 -> 329 ;
330 [label="gini = 0.0\nsamples = 62\nvalue = [0, 94]\nclass = 1", fillcolor="#399de5"] ;
329 -> 330 ;
331 [label="gini = 0.0\nsamples = 1\nvalue = [1, 0]\nclass = 0", fillcolor="#e58139"] ;
329 -> 331 ;
332 [label="pa <= 0.5\ngini = 0.5\nsamples = 2\nvalue = [1, 1]\nclass = 0", fillcolor="#ffffff"] ;
328 -> 332 ;
333 [label="gini = 0.0\nsamples = 1\nvalue = [1, 0]\nclass = 0", fillcolor="#e58139"] ;
332 -> 333 ;
334 [label="gini = 0.0\nsamples = 1\nvalue = [0, 1]\nclass = 1", fillcolor="#399de5"] ;
332 -> 334 ;
335 [label="ya <= 0.5\ngini = 0.48\nsamples = 3\nvalue = [3, 2]\nclass = 0", fillcolor="#f6d5bd"] ;
311 -> 335 ;
336 [label="gini = 0.0\nsamples = 2\nvalue = [3, 0]\nclass = 0", fillcolor="#e58139"] ;
335 -> 336 ;
337 [label="gini = 0.0\nsamples = 1\nvalue = [0, 2]\nclass = 1", fillcolor="#399de5"] ;
335 -> 337 ;
338 [label="gini = 0.0\nsamples = 2\nvalue = [3, 0]\nclass = 0", fillcolor="#e58139"] ;
310 -> 338 ;
339 [label="gini = 0.0\nsamples = 2\nvalue = [3, 0]\nclass = 0", fillcolor="#e58139"] ;
309 -> 339 ;
340 [label="gini = 0.0\nsamples = 1\nvalue = [3, 0]\nclass = 0", fillcolor="#e58139"] ;
308 -> 340 ;
341 [label="quit <= 0.5\ngini = 0.5\nsamples = 8\nvalue = [6, 5]\nclass = 0", fillcolor="#fbeade"] ;
307 -> 341 ;
342 [label="tr <= 0.5\ngini = 0.47\nsamples = 6\nvalue = [3, 5]\nclass = 1", fillcolor="#b0d8f5"] ;
341 -> 342 ;
343 [label="hi <= 0.5\ngini = 0.38\nsamples = 3\nvalue = [3, 1]\nclass = 0", fillcolor="#eeab7b"] ;
342 -> 343 ;
344 [label="gini = 0.0\nsamples = 1\nvalue = [0, 1]\nclass = 1", fillcolor="#399de5"] ;
343 -> 344 ;
345 [label="gini = 0.0\nsamples = 2\nvalue = [3, 0]\nclass = 0", fillcolor="#e58139"] ;
343 -> 345 ;
346 [label="gini = 0.0\nsamples = 3\nvalue = [0, 4]\nclass = 1", fillcolor="#399de5"] ;
342 -> 346 ;
347 [label="gini = 0.0\nsamples = 2\nvalue = [3, 0]\nclass = 0", fillcolor="#e58139"] ;
341 -> 347 ;
348 [label="gini = 0.0\nsamples = 9\nvalue = [13, 0]\nclass = 0", fillcolor="#e58139"] ;
242 -> 348 ;
349 [label="sound <= 0.5\ngini = 0.44\nsamples = 34\nvalue = [38, 19]\nclass = 0", fillcolor="#f2c09c"] ;
241 -> 349 ;
350 [label="seem <= 0.5\ngini = 0.42\nsamples = 31\nvalue = [38, 16]\nclass = 0", fillcolor="#f0b68c"] ;
349 -> 350 ;
351 [label="le <= 0.5\ngini = 0.35\nsamples = 28\nvalue = [38, 11]\nclass = 0", fillcolor="#eda572"] ;
350 -> 351 ;
352 [label="v <= 0.5\ngini = 0.47\nsamples = 4\nvalue = [3, 5]\nclass = 1", fillcolor="#b0d8f5"] ;
351 -> 352 ;
353 [label="gini = 0.0\nsamples = 1\nvalue = [3, 0]\nclass = 0", fillcolor="#e58139"] ;
352 -> 353 ;
354 [label="gini = 0.0\nsamples = 3\nvalue = [0, 5]\nclass = 1", fillcolor="#399de5"] ;
352 -> 354 ;
355 [label="hit <= 0.5\ngini = 0.25\nsamples = 24\nvalue = [35, 6]\nclass = 0", fillcolor="#e9975b"] ;
351 -> 355 ;
356 [label="night <= 0.5\ngini = 0.22\nsamples = 23\nvalue = [35, 5]\nclass = 0", fillcolor="#e99355"] ;
355 -> 356 ;
357 [label="re <= 5.5\ngini = 0.15\nsamples = 22\nvalue = [35, 3]\nclass = 0", fillcolor="#e78c4a"] ;
356 -> 357 ;
358 [label="use <= 1.5\ngini = 0.06\nsamples = 18\nvalue = [31, 1]\nclass = 0", fillcolor="#e6853f"] ;
357 -> 358 ;
359 [label="gini = 0.0\nsamples = 17\nvalue = [31, 0]\nclass = 0", fillcolor="#e58139"] ;
358 -> 359 ;
360 [label="gini = 0.0\nsamples = 1\nvalue = [0, 1]\nclass = 1", fillcolor="#399de5"] ;
358 -> 360 ;
361 [label="wi <= 0.5\ngini = 0.44\nsamples = 4\nvalue = [4, 2]\nclass = 0", fillcolor="#f2c09c"] ;
357 -> 361 ;
362 [label="gini = 0.0\nsamples = 2\nvalue = [0, 2]\nclass = 1", fillcolor="#399de5"] ;
361 -> 362 ;
363 [label="gini = 0.0\nsamples = 2\nvalue = [4, 0]\nclass = 0", fillcolor="#e58139"] ;
361 -> 363 ;
364 [label="gini = 0.0\nsamples = 1\nvalue = [0, 2]\nclass = 1", fillcolor="#399de5"] ;
356 -> 364 ;
365 [label="gini = 0.0\nsamples = 1\nvalue = [0, 1]\nclass = 1", fillcolor="#399de5"] ;
355 -> 365 ;
366 [label="gini = 0.0\nsamples = 3\nvalue = [0, 5]\nclass = 1", fillcolor="#399de5"] ;
350 -> 366 ;
367 [label="gini = 0.0\nsamples = 3\nvalue = [0, 3]\nclass = 1", fillcolor="#399de5"] ;
349 -> 367 ;
368 [label="gini = 0.0\nsamples = 8\nvalue = [17, 0]\nclass = 0", fillcolor="#e58139"] ;
240 -> 368 ;
369 [label="nd <= 1.5\ngini = 0.22\nsamples = 64\nvalue = [91, 13]\nclass = 0", fillcolor="#e99355"] ;
239 -> 369 ;
370 [label="enterprise <= 0.5\ngini = 0.31\nsamples = 38\nvalue = [54, 13]\nclass = 0", fillcolor="#eb9f69"] ;
369 -> 370 ;
371 [label="s <= 12.5\ngini = 0.22\nsamples = 35\nvalue = [54, 8]\nclass = 0", fillcolor="#e99456"] ;
370 -> 371 ;
372 [label="gr <= 0.5\ngini = 0.14\nsamples = 23\nvalue = [37, 3]\nclass = 0", fillcolor="#e78b49"] ;
371 -> 372 ;
373 [label="gini = 0.0\nsamples = 18\nvalue = [33, 0]\nclass = 0", fillcolor="#e58139"] ;
372 -> 373 ;
374 [label="would <= 0.5\ngini = 0.49\nsamples = 5\nvalue = [4, 3]\nclass = 0", fillcolor="#f8e0ce"] ;
372 -> 374 ;
375 [label="gini = 0.0\nsamples = 2\nvalue = [0, 3]\nclass = 1", fillcolor="#399de5"] ;
374 -> 375 ;
376 [label="gini = 0.0\nsamples = 3\nvalue = [4, 0]\nclass = 0", fillcolor="#e58139"] ;
374 -> 376 ;
377 [label="ad <= 0.5\ngini = 0.35\nsamples = 12\nvalue = [17, 5]\nclass = 0", fillcolor="#eda673"] ;
371 -> 377 ;
378 [label="our <= 0.5\ngini = 0.23\nsamples = 8\nvalue = [13, 2]\nclass = 0", fillcolor="#e99457"] ;
377 -> 378 ;
379 [label="gini = 0.0\nsamples = 5\nvalue = [10, 0]\nclass = 0", fillcolor="#e58139"] ;
378 -> 379 ;
380 [label="because <= 0.5\ngini = 0.48\nsamples = 3\nvalue = [3, 2]\nclass = 0", fillcolor="#f6d5bd"] ;
378 -> 380 ;
381 [label="gini = 0.0\nsamples = 2\nvalue = [3, 0]\nclass = 0", fillcolor="#e58139"] ;
380 -> 381 ;
382 [label="gini = 0.0\nsamples = 1\nvalue = [0, 2]\nclass = 1", fillcolor="#399de5"] ;
380 -> 382 ;
383 [label="b <= 5.0\ngini = 0.49\nsamples = 4\nvalue = [4, 3]\nclass = 0", fillcolor="#f8e0ce"] ;
377 -> 383 ;
384 [label="gini = 0.0\nsamples = 2\nvalue = [4, 0]\nclass = 0", fillcolor="#e58139"] ;
383 -> 384 ;
385 [label="gini = 0.0\nsamples = 2\nvalue = [0, 3]\nclass = 1", fillcolor="#399de5"] ;
383 -> 385 ;
386 [label="gini = 0.0\nsamples = 3\nvalue = [0, 5]\nclass = 1", fillcolor="#399de5"] ;
370 -> 386 ;
387 [label="gini = 0.0\nsamples = 26\nvalue = [37, 0]\nclass = 0", fillcolor="#e58139"] ;
369 -> 387 ;
388 [label="use <= 0.5\ngini = 0.07\nsamples = 55\nvalue = [86, 3]\nclass = 0", fillcolor="#e68540"] ;
238 -> 388 ;
389 [label="gini = 0.0\nsamples = 52\nvalue = [85, 0]\nclass = 0", fillcolor="#e58139"] ;
388 -> 389 ;
390 [label="da <= 0.5\ngini = 0.38\nsamples = 3\nvalue = [1, 3]\nclass = 1", fillcolor="#7bbeee"] ;
388 -> 390 ;
391 [label="gini = 0.0\nsamples = 1\nvalue = [0, 2]\nclass = 1", fillcolor="#399de5"] ;
390 -> 391 ;
392 [label="one <= 0.5\ngini = 0.5\nsamples = 2\nvalue = [1, 1]\nclass = 0", fillcolor="#ffffff"] ;
390 -> 392 ;
393 [label="gini = 0.0\nsamples = 1\nvalue = [1, 0]\nclass = 0", fillcolor="#e58139"] ;
392 -> 393 ;
394 [label="gini = 0.0\nsamples = 1\nvalue = [0, 1]\nclass = 1", fillcolor="#399de5"] ;
392 -> 394 ;
395 [label="gas <= 0.5\ngini = 0.38\nsamples = 50\nvalue = [21, 62]\nclass = 1", fillcolor="#7cbeee"] ;
237 -> 395 ;
396 [label="recent <= 0.5\ngini = 0.27\nsamples = 45\nvalue = [12, 62]\nclass = 1", fillcolor="#5fb0ea"] ;
395 -> 396 ;
397 [label="al <= 1.5\ngini = 0.2\nsamples = 44\nvalue = [8, 62]\nclass = 1", fillcolor="#53aae8"] ;
396 -> 397 ;
398 [label="miss <= 0.5\ngini = 0.4\nsamples = 15\nvalue = [7, 18]\nclass = 1", fillcolor="#86c3ef"] ;
397 -> 398 ;
399 [label="fyi <= 0.5\ngini = 0.34\nsamples = 14\nvalue = [5, 18]\nclass = 1", fillcolor="#70b8ec"] ;
398 -> 399 ;
400 [label="couple <= 0.5\ngini = 0.18\nsamples = 12\nvalue = [2, 18]\nclass = 1", fillcolor="#4fa8e8"] ;
399 -> 400 ;
401 [label="mai <= 0.5\ngini = 0.1\nsamples = 11\nvalue = [1, 18]\nclass = 1", fillcolor="#44a2e6"] ;
400 -> 401 ;
402 [label="month <= 0.5\ngini = 0.14\nsamples = 8\nvalue = [1, 12]\nclass = 1", fillcolor="#49a5e7"] ;
401 -> 402 ;
403 [label="gini = 0.0\nsamples = 7\nvalue = [0, 12]\nclass = 1", fillcolor="#399de5"] ;
402 -> 403 ;
404 [label="gini = 0.0\nsamples = 1\nvalue = [1, 0]\nclass = 0", fillcolor="#e58139"] ;
402 -> 404 ;
405 [label="gini = 0.0\nsamples = 3\nvalue = [0, 6]\nclass = 1", fillcolor="#399de5"] ;
401 -> 405 ;
406 [label="gini = 0.0\nsamples = 1\nvalue = [1, 0]\nclass = 0", fillcolor="#e58139"] ;
400 -> 406 ;
407 [label="gini = 0.0\nsamples = 2\nvalue = [3, 0]\nclass = 0", fillcolor="#e58139"] ;
399 -> 407 ;
408 [label="gini = 0.0\nsamples = 1\nvalue = [2, 0]\nclass = 0", fillcolor="#e58139"] ;
398 -> 408 ;
409 [label="hou <= 0.5\ngini = 0.04\nsamples = 29\nvalue = [1, 44]\nclass = 1", fillcolor="#3d9fe6"] ;
397 -> 409 ;
410 [label="gini = 0.0\nsamples = 23\nvalue = [0, 38]\nclass = 1", fillcolor="#399de5"] ;
409 -> 410 ;
411 [label="me <= 2.5\ngini = 0.24\nsamples = 6\nvalue = [1, 6]\nclass = 1", fillcolor="#5aade9"] ;
409 -> 411 ;
412 [label="gini = 0.0\nsamples = 5\nvalue = [0, 6]\nclass = 1", fillcolor="#399de5"] ;
411 -> 412 ;
413 [label="gini = 0.0\nsamples = 1\nvalue = [1, 0]\nclass = 0", fillcolor="#e58139"] ;
411 -> 413 ;
414 [label="gini = 0.0\nsamples = 1\nvalue = [4, 0]\nclass = 0", fillcolor="#e58139"] ;
396 -> 414 ;
415 [label="gini = 0.0\nsamples = 5\nvalue = [9, 0]\nclass = 0", fillcolor="#e58139"] ;
395 -> 415 ;
416 [label="ti <= 2.5\ngini = 0.03\nsamples = 35\nvalue = [61, 1]\nclass = 0", fillcolor="#e5833c"] ;
236 -> 416 ;
417 [label="gini = 0.0\nsamples = 34\nvalue = [61, 0]\nclass = 0", fillcolor="#e58139"] ;
416 -> 417 ;
418 [label="gini = 0.0\nsamples = 1\nvalue = [0, 1]\nclass = 1", fillcolor="#399de5"] ;
416 -> 418 ;
419 [label="ur <= 0.5\ngini = 0.2\nsamples = 20\nvalue = [4, 31]\nclass = 1", fillcolor="#53aae8"] ;
235 -> 419 ;
420 [label="could <= 0.5\ngini = 0.32\nsamples = 4\nvalue = [4, 1]\nclass = 0", fillcolor="#eca06a"] ;
419 -> 420 ;
421 [label="le <= 0.5\ngini = 0.44\nsamples = 3\nvalue = [2, 1]\nclass = 0", fillcolor="#f2c09c"] ;
420 -> 421 ;
422 [label="gini = 0.0\nsamples = 1\nvalue = [1, 0]\nclass = 0", fillcolor="#e58139"] ;
421 -> 422 ;
423 [label="cs <= 0.5\ngini = 0.5\nsamples = 2\nvalue = [1, 1]\nclass = 0", fillcolor="#ffffff"] ;
421 -> 423 ;
424 [label="gini = 0.0\nsamples = 1\nvalue = [1, 0]\nclass = 0", fillcolor="#e58139"] ;
423 -> 424 ;
425 [label="gini = 0.0\nsamples = 1\nvalue = [0, 1]\nclass = 1", fillcolor="#399de5"] ;
423 -> 425 ;
426 [label="gini = 0.0\nsamples = 1\nvalue = [2, 0]\nclass = 0", fillcolor="#e58139"] ;
420 -> 426 ;
427 [label="gini = 0.0\nsamples = 16\nvalue = [0, 30]\nclass = 1", fillcolor="#399de5"] ;
419 -> 427 ;
428 [label="den <= 0.5\ngini = 0.31\nsamples = 72\nvalue = [95, 23]\nclass = 0", fillcolor="#eba069"] ;
150 -> 428 ;
429 [label="do <= 0.5\ngini = 0.25\nsamples = 68\nvalue = [95, 16]\nclass = 0", fillcolor="#e9965a"] ;
428 -> 429 ;
430 [label="saw <= 0.5\ngini = 0.09\nsamples = 54\nvalue = [85, 4]\nclass = 0", fillcolor="#e68742"] ;
429 -> 430 ;
431 [label="eb <= 0.5\ngini = 0.02\nsamples = 53\nvalue = [85, 1]\nclass = 0", fillcolor="#e5823b"] ;
430 -> 431 ;
432 [label="gini = 0.0\nsamples = 49\nvalue = [80, 0]\nclass = 0", fillcolor="#e58139"] ;
431 -> 432 ;
433 [label="g <= 1.5\ngini = 0.28\nsamples = 4\nvalue = [5, 1]\nclass = 0", fillcolor="#ea9a61"] ;
431 -> 433 ;
434 [label="gini = 0.0\nsamples = 1\nvalue = [0, 1]\nclass = 1", fillcolor="#399de5"] ;
433 -> 434 ;
435 [label="gini = 0.0\nsamples = 3\nvalue = [5, 0]\nclass = 0", fillcolor="#e58139"] ;
433 -> 435 ;
436 [label="gini = 0.0\nsamples = 1\nvalue = [0, 3]\nclass = 1", fillcolor="#399de5"] ;
430 -> 436 ;
437 [label="list <= 0.5\ngini = 0.5\nsamples = 14\nvalue = [10, 12]\nclass = 1", fillcolor="#deeffb"] ;
429 -> 437 ;
438 [label="pool <= 0.5\ngini = 0.47\nsamples = 13\nvalue = [7, 12]\nclass = 1", fillcolor="#acd6f4"] ;
437 -> 438 ;
439 [label="lp <= 0.5\ngini = 0.42\nsamples = 12\nvalue = [5, 12]\nclass = 1", fillcolor="#8bc6f0"] ;
438 -> 439 ;
440 [label="l <= 30.0\ngini = 0.32\nsamples = 11\nvalue = [3, 12]\nclass = 1", fillcolor="#6ab6ec"] ;
439 -> 440 ;
441 [label="hr <= 1.0\ngini = 0.24\nsamples = 10\nvalue = [2, 12]\nclass = 1", fillcolor="#5aade9"] ;
440 -> 441 ;
442 [label="said <= 0.5\ngini = 0.14\nsamples = 9\nvalue = [1, 12]\nclass = 1", fillcolor="#49a5e7"] ;
441 -> 442 ;
443 [label="gini = 0.0\nsamples = 8\nvalue = [0, 12]\nclass = 1", fillcolor="#399de5"] ;
442 -> 443 ;
444 [label="gini = 0.0\nsamples = 1\nvalue = [1, 0]\nclass = 0", fillcolor="#e58139"] ;
442 -> 444 ;
445 [label="gini = 0.0\nsamples = 1\nvalue = [1, 0]\nclass = 0", fillcolor="#e58139"] ;
441 -> 445 ;
446 [label="gini = 0.0\nsamples = 1\nvalue = [1, 0]\nclass = 0", fillcolor="#e58139"] ;
440 -> 446 ;
447 [label="gini = 0.0\nsamples = 1\nvalue = [2, 0]\nclass = 0", fillcolor="#e58139"] ;
439 -> 447 ;
448 [label="gini = 0.0\nsamples = 1\nvalue = [2, 0]\nclass = 0", fillcolor="#e58139"] ;
438 -> 448 ;
449 [label="gini = 0.0\nsamples = 1\nvalue = [3, 0]\nclass = 0", fillcolor="#e58139"] ;
437 -> 449 ;
450 [label="gini = 0.0\nsamples = 4\nvalue = [0, 7]\nclass = 1", fillcolor="#399de5"] ;
428 -> 450 ;
451 [label="nomination <= 0.5\ngini = 0.4\nsamples = 1207\nvalue = [533, 1376]\nclass = 1", fillcolor="#86c3ef"] ;
1 -> 451 ;
452 [label="follow <= 0.5\ngini = 0.38\nsamples = 1166\nvalue = [461, 1376]\nclass = 1", fillcolor="#7bbeee"] ;
451 -> 452 ;
453 [label="ward <= 0.5\ngini = 0.35\nsamples = 1093\nvalue = [384, 1342]\nclass = 1", fillcolor="#72b9ec"] ;
452 -> 453 ;
454 [label="doing <= 0.5\ngini = 0.26\nsamples = 925\nvalue = [225, 1228]\nclass = 1", fillcolor="#5dafea"] ;
453 -> 454 ;
455 [label="transport <= 0.5\ngini = 0.24\nsamples = 908\nvalue = [203, 1224]\nclass = 1", fillcolor="#5aade9"] ;
454 -> 455 ;
456 [label="cornhusker <= 0.5\ngini = 0.22\nsamples = 891\nvalue = [176, 1224]\nclass = 1", fillcolor="#55abe9"] ;
455 -> 456 ;
457 [label="different <= 0.5\ngini = 0.21\nsamples = 885\nvalue = [164, 1224]\nclass = 1", fillcolor="#54aae8"] ;
456 -> 457 ;
458 [label="enron <= 0.5\ngini = 0.19\nsamples = 868\nvalue = [144, 1214]\nclass = 1", fillcolor="#50a9e8"] ;
457 -> 458 ;
459 [label="subject <= 1.5\ngini = 0.14\nsamples = 835\nvalue = [99, 1214]\nclass = 1", fillcolor="#49a5e7"] ;
458 -> 459 ;
460 [label="kids <= 2.5\ngini = 0.13\nsamples = 826\nvalue = [89, 1212]\nclass = 1", fillcolor="#48a4e7"] ;
459 -> 460 ;
461 [label="plant <= 0.5\ngini = 0.12\nsamples = 825\nvalue = [86, 1212]\nclass = 1", fillcolor="#47a4e7"] ;
460 -> 461 ;
462 [label="day <= 2.5\ngini = 0.12\nsamples = 818\nvalue = [79, 1208]\nclass = 1", fillcolor="#46a3e7"] ;
461 -> 462 ;
463 [label="u <= 2.5\ngini = 0.1\nsamples = 804\nvalue = [68, 1200]\nclass = 1", fillcolor="#44a3e6"] ;
462 -> 463 ;
464 [label="changes <= 0.5\ngini = 0.42\nsamples = 7\nvalue = [7, 3]\nclass = 0", fillcolor="#f0b78e"] ;
463 -> 464 ;
465 [label="im <= 0.5\ngini = 0.5\nsamples = 5\nvalue = [3, 3]\nclass = 0", fillcolor="#ffffff"] ;
464 -> 465 ;
466 [label="m <= 2.5\ngini = 0.38\nsamples = 4\nvalue = [1, 3]\nclass = 1", fillcolor="#7bbeee"] ;
465 -> 466 ;
467 [label="gini = 0.0\nsamples = 1\nvalue = [0, 1]\nclass = 1", fillcolor="#399de5"] ;
466 -> 467 ;
468 [label="more <= 0.5\ngini = 0.44\nsamples = 3\nvalue = [1, 2]\nclass = 1", fillcolor="#9ccef2"] ;
466 -> 468 ;
469 [label="d <= 1.5\ngini = 0.5\nsamples = 2\nvalue = [1, 1]\nclass = 0", fillcolor="#ffffff"] ;
468 -> 469 ;
470 [label="gini = 0.0\nsamples = 1\nvalue = [0, 1]\nclass = 1", fillcolor="#399de5"] ;
469 -> 470 ;
471 [label="gini = 0.0\nsamples = 1\nvalue = [1, 0]\nclass = 0", fillcolor="#e58139"] ;
469 -> 471 ;
472 [label="gini = 0.0\nsamples = 1\nvalue = [0, 1]\nclass = 1", fillcolor="#399de5"] ;
468 -> 472 ;
473 [label="gini = 0.0\nsamples = 1\nvalue = [2, 0]\nclass = 0", fillcolor="#e58139"] ;
465 -> 473 ;
474 [label="gini = 0.0\nsamples = 2\nvalue = [4, 0]\nclass = 0", fillcolor="#e58139"] ;
464 -> 474 ;
475 [label="zero <= 1.5\ngini = 0.09\nsamples = 797\nvalue = [61, 1197]\nclass = 1", fillcolor="#43a2e6"] ;
463 -> 475 ;
476 [label="path <= 0.5\ngini = 0.08\nsamples = 795\nvalue = [54, 1197]\nclass = 1", fillcolor="#42a1e6"] ;
475 -> 476 ;
477 [label="hanks <= 1.5\ngini = 0.07\nsamples = 774\nvalue = [41, 1176]\nclass = 1", fillcolor="#40a0e6"] ;
476 -> 477 ;
478 [label="texas <= 0.5\ngini = 0.06\nsamples = 772\nvalue = [38, 1176]\nclass = 1", fillcolor="#3fa0e6"] ;
477 -> 478 ;
479 [label="october <= 0.5\ngini = 0.05\nsamples = 765\nvalue = [32, 1174]\nclass = 1", fillcolor="#3ea0e6"] ;
478 -> 479 ;
480 [label="superty <= 0.5\ngini = 0.05\nsamples = 762\nvalue = [29, 1173]\nclass = 1", fillcolor="#3e9fe6"] ;
479 -> 480 ;
481 [label="program <= 1.5\ngini = 0.04\nsamples = 761\nvalue = [27, 1173]\nclass = 1", fillcolor="#3e9fe6"] ;
480 -> 481 ;
482 [label="lloyd <= 0.5\ngini = 0.04\nsamples = 757\nvalue = [24, 1168]\nclass = 1", fillcolor="#3d9fe6"] ;
481 -> 482 ;
483 [label="wife <= 4.5\ngini = 0.04\nsamples = 756\nvalue = [22, 1168]\nclass = 1", fillcolor="#3d9fe5"] ;
482 -> 483 ;
484 [label="ami <= 1.5\ngini = 0.03\nsamples = 755\nvalue = [21, 1168]\nclass = 1", fillcolor="#3d9fe5"] ;
483 -> 484 ;
485 [label="deals <= 2.5\ngini = 0.03\nsamples = 741\nvalue = [18, 1145]\nclass = 1", fillcolor="#3c9fe5"] ;
484 -> 485 ;
486 [label="purchased <= 0.5\ngini = 0.03\nsamples = 740\nvalue = [17, 1145]\nclass = 1", fillcolor="#3c9ee5"] ;
485 -> 486 ;
487 [label="pipeline <= 1.0\ngini = 0.03\nsamples = 739\nvalue = [16, 1145]\nclass = 1", fillcolor="#3c9ee5"] ;
486 -> 487 ;
488 [label="weather <= 0.5\ngini = 0.03\nsamples = 738\nvalue = [15, 1145]\nclass = 1", fillcolor="#3c9ee5"] ;
487 -> 488 ;
489 [label="energy <= 3.0\ngini = 0.02\nsamples = 737\nvalue = [14, 1145]\nclass = 1", fillcolor="#3b9ee5"] ;
488 -> 489 ;
490 [label="group <= 2.5\ngini = 0.02\nsamples = 736\nvalue = [13, 1145]\nclass = 1", fillcolor="#3b9ee5"] ;
489 -> 490 ;
491 [label="meter <= 1.5\ngini = 0.02\nsamples = 732\nvalue = [11, 1142]\nclass = 1", fillcolor="#3b9ee5"] ;
490 -> 491 ;
492 [label="approval <= 0.5\ngini = 0.02\nsamples = 731\nvalue = [10, 1142]\nclass = 1", fillcolor="#3b9ee5"] ;
491 -> 492 ;
493 [label="hpl <= 1.5\ngini = 0.01\nsamples = 725\nvalue = [7, 1137]\nclass = 1", fillcolor="#3a9ee5"] ;
492 -> 493 ;
494 [label="bought <= 1.5\ngini = 0.01\nsamples = 724\nvalue = [6, 1137]\nclass = 1", fillcolor="#3a9ee5"] ;
493 -> 494 ;
495 [label="stuff <= 0.5\ngini = 0.01\nsamples = 719\nvalue = [5, 1131]\nclass = 1", fillcolor="#3a9de5"] ;
494 -> 495 ;
496 [label="ce <= 0.5\ngini = 0.01\nsamples = 713\nvalue = [4, 1123]\nclass = 1", fillcolor="#3a9de5"] ;
495 -> 496 ;
497 [label="says <= 1.0\ngini = 0.03\nsamples = 117\nvalue = [3, 182]\nclass = 1", fillcolor="#3c9fe5"] ;
496 -> 497 ;
498 [label="be <= 0.5\ngini = 0.02\nsamples = 116\nvalue = [2, 182]\nclass = 1", fillcolor="#3b9ee5"] ;
497 -> 498 ;
499 [label="gini = 0.0\nsamples = 43\nvalue = [0, 75]\nclass = 1", fillcolor="#399de5"] ;
498 -> 499 ;
500 [label="guess <= 0.5\ngini = 0.04\nsamples = 73\nvalue = [2, 107]\nclass = 1", fillcolor="#3d9fe5"] ;
498 -> 500 ;
501 [label="gini = 0.0\nsamples = 72\nvalue = [0, 107]\nclass = 1", fillcolor="#399de5"] ;
500 -> 501 ;
502 [label="gini = 0.0\nsamples = 1\nvalue = [2, 0]\nclass = 0", fillcolor="#e58139"] ;
500 -> 502 ;
503 [label="gini = 0.0\nsamples = 1\nvalue = [1, 0]\nclass = 0", fillcolor="#e58139"] ;
497 -> 503 ;
504 [label="gift <= 2.5\ngini = 0.0\nsamples = 596\nvalue = [1, 941]\nclass = 1", fillcolor="#399de5"] ;
496 -> 504 ;
505 [label="gini = 0.0\nsamples = 595\nvalue = [0, 941]\nclass = 1", fillcolor="#399de5"] ;
504 -> 505 ;
506 [label="gini = 0.0\nsamples = 1\nvalue = [1, 0]\nclass = 0", fillcolor="#e58139"] ;
504 -> 506 ;
507 [label="been <= 0.5\ngini = 0.2\nsamples = 6\nvalue = [1, 8]\nclass = 1", fillcolor="#52a9e8"] ;
495 -> 507 ;
508 [label="gini = 0.0\nsamples = 5\nvalue = [0, 8]\nclass = 1", fillcolor="#399de5"] ;
507 -> 508 ;
509 [label="gini = 0.0\nsamples = 1\nvalue = [1, 0]\nclass = 0", fillcolor="#e58139"] ;
507 -> 509 ;
510 [label="strictly <= 0.5\ngini = 0.24\nsamples = 5\nvalue = [1, 6]\nclass = 1", fillcolor="#5aade9"] ;
494 -> 510 ;
511 [label="gini = 0.0\nsamples = 1\nvalue = [1, 0]\nclass = 0", fillcolor="#e58139"] ;
510 -> 511 ;
512 [label="gini = 0.0\nsamples = 4\nvalue = [0, 6]\nclass = 1", fillcolor="#399de5"] ;
510 -> 512 ;
513 [label="gini = 0.0\nsamples = 1\nvalue = [1, 0]\nclass = 0", fillcolor="#e58139"] ;
493 -> 513 ;
514 [label="sp <= 0.5\ngini = 0.47\nsamples = 6\nvalue = [3, 5]\nclass = 1", fillcolor="#b0d8f5"] ;
492 -> 514 ;
515 [label="gini = 0.0\nsamples = 4\nvalue = [0, 5]\nclass = 1", fillcolor="#399de5"] ;
514 -> 515 ;
516 [label="gini = 0.0\nsamples = 2\nvalue = [3, 0]\nclass = 0", fillcolor="#e58139"] ;
514 -> 516 ;
517 [label="gini = 0.0\nsamples = 1\nvalue = [1, 0]\nclass = 0", fillcolor="#e58139"] ;
491 -> 517 ;
518 [label="need <= 0.5\ngini = 0.48\nsamples = 4\nvalue = [2, 3]\nclass = 1", fillcolor="#bddef6"] ;
490 -> 518 ;
519 [label="gini = 0.0\nsamples = 2\nvalue = [0, 3]\nclass = 1", fillcolor="#399de5"] ;
518 -> 519 ;
520 [label="gini = 0.0\nsamples = 2\nvalue = [2, 0]\nclass = 0", fillcolor="#e58139"] ;
518 -> 520 ;
521 [label="gini = 0.0\nsamples = 1\nvalue = [1, 0]\nclass = 0", fillcolor="#e58139"] ;
489 -> 521 ;
522 [label="gini = 0.0\nsamples = 1\nvalue = [1, 0]\nclass = 0", fillcolor="#e58139"] ;
488 -> 522 ;
523 [label="gini = 0.0\nsamples = 1\nvalue = [1, 0]\nclass = 0", fillcolor="#e58139"] ;
487 -> 523 ;
524 [label="gini = 0.0\nsamples = 1\nvalue = [1, 0]\nclass = 0", fillcolor="#e58139"] ;
486 -> 524 ;
525 [label="gini = 0.0\nsamples = 1\nvalue = [1, 0]\nclass = 0", fillcolor="#e58139"] ;
485 -> 525 ;
526 [label="fw <= 0.5\ngini = 0.2\nsamples = 14\nvalue = [3, 23]\nclass = 1", fillcolor="#53aae8"] ;
484 -> 526 ;
527 [label="we <= 1.5\ngini = 0.08\nsamples = 13\nvalue = [1, 23]\nclass = 1", fillcolor="#42a1e6"] ;
526 -> 527 ;
528 [label="gini = 0.0\nsamples = 1\nvalue = [1, 0]\nclass = 0", fillcolor="#e58139"] ;
527 -> 528 ;
529 [label="gini = 0.0\nsamples = 12\nvalue = [0, 23]\nclass = 1", fillcolor="#399de5"] ;
527 -> 529 ;
530 [label="gini = 0.0\nsamples = 1\nvalue = [2, 0]\nclass = 0", fillcolor="#e58139"] ;
526 -> 530 ;
531 [label="gini = 0.0\nsamples = 1\nvalue = [1, 0]\nclass = 0", fillcolor="#e58139"] ;
483 -> 531 ;
532 [label="gini = 0.0\nsamples = 1\nvalue = [2, 0]\nclass = 0", fillcolor="#e58139"] ;
482 -> 532 ;
533 [label="run <= 0.5\ngini = 0.47\nsamples = 4\nvalue = [3, 5]\nclass = 1", fillcolor="#b0d8f5"] ;
481 -> 533 ;
534 [label="gini = 0.0\nsamples = 3\nvalue = [0, 5]\nclass = 1", fillcolor="#399de5"] ;
533 -> 534 ;
535 [label="gini = 0.0\nsamples = 1\nvalue = [3, 0]\nclass = 0", fillcolor="#e58139"] ;
533 -> 535 ;
536 [label="gini = 0.0\nsamples = 1\nvalue = [2, 0]\nclass = 0", fillcolor="#e58139"] ;
480 -> 536 ;
537 [label="her <= 0.5\ngini = 0.38\nsamples = 3\nvalue = [3, 1]\nclass = 0", fillcolor="#eeab7b"] ;
479 -> 537 ;
538 [label="gini = 0.0\nsamples = 1\nvalue = [0, 1]\nclass = 1", fillcolor="#399de5"] ;
537 -> 538 ;
539 [label="gini = 0.0\nsamples = 2\nvalue = [3, 0]\nclass = 0", fillcolor="#e58139"] ;
537 -> 539 ;
540 [label="it <= 14.0\ngini = 0.38\nsamples = 7\nvalue = [6, 2]\nclass = 0", fillcolor="#eeab7b"] ;
478 -> 540 ;
541 [label="gini = 0.0\nsamples = 6\nvalue = [6, 0]\nclass = 0", fillcolor="#e58139"] ;
540 -> 541 ;
542 [label="gini = 0.0\nsamples = 1\nvalue = [0, 2]\nclass = 1", fillcolor="#399de5"] ;
540 -> 542 ;
543 [label="gini = 0.0\nsamples = 2\nvalue = [3, 0]\nclass = 0", fillcolor="#e58139"] ;
477 -> 543 ;
544 [label="n <= 65.0\ngini = 0.47\nsamples = 21\nvalue = [13, 21]\nclass = 1", fillcolor="#b4daf5"] ;
476 -> 544 ;
545 [label="gini = 0.0\nsamples = 8\nvalue = [13, 0]\nclass = 0", fillcolor="#e58139"] ;
544 -> 545 ;
546 [label="gini = 0.0\nsamples = 13\nvalue = [0, 21]\nclass = 1", fillcolor="#399de5"] ;
544 -> 546 ;
547 [label="gini = 0.0\nsamples = 2\nvalue = [7, 0]\nclass = 0", fillcolor="#e58139"] ;
475 -> 547 ;
548 [label="mai <= 0.5\ngini = 0.49\nsamples = 14\nvalue = [11, 8]\nclass = 0", fillcolor="#f8ddc9"] ;
462 -> 548 ;
549 [label="these <= 1.5\ngini = 0.3\nsamples = 7\nvalue = [9, 2]\nclass = 0", fillcolor="#eb9d65"] ;
548 -> 549 ;
550 [label="over <= 3.5\ngini = 0.18\nsamples = 6\nvalue = [9, 1]\nclass = 0", fillcolor="#e88f4f"] ;
549 -> 550 ;
551 [label="gini = 0.0\nsamples = 5\nvalue = [9, 0]\nclass = 0", fillcolor="#e58139"] ;
550 -> 551 ;
552 [label="gini = 0.0\nsamples = 1\nvalue = [0, 1]\nclass = 1", fillcolor="#399de5"] ;
550 -> 552 ;
553 [label="gini = 0.0\nsamples = 1\nvalue = [0, 1]\nclass = 1", fillcolor="#399de5"] ;
549 -> 553 ;
554 [label="begin <= 0.5\ngini = 0.38\nsamples = 7\nvalue = [2, 6]\nclass = 1", fillcolor="#7bbeee"] ;
548 -> 554 ;
555 [label="pa <= 1.5\ngini = 0.24\nsamples = 6\nvalue = [1, 6]\nclass = 1", fillcolor="#5aade9"] ;
554 -> 555 ;
556 [label="gini = 0.0\nsamples = 1\nvalue = [1, 0]\nclass = 0", fillcolor="#e58139"] ;
555 -> 556 ;
557 [label="gini = 0.0\nsamples = 5\nvalue = [0, 6]\nclass = 1", fillcolor="#399de5"] ;
555 -> 557 ;
558 [label="gini = 0.0\nsamples = 1\nvalue = [1, 0]\nclass = 0", fillcolor="#e58139"] ;
554 -> 558 ;
559 [label="g <= 14.0\ngini = 0.46\nsamples = 7\nvalue = [7, 4]\nclass = 0", fillcolor="#f4c9aa"] ;
461 -> 559 ;
560 [label="gini = 0.0\nsamples = 4\nvalue = [6, 0]\nclass = 0", fillcolor="#e58139"] ;
559 -> 560 ;
561 [label="his <= 6.0\ngini = 0.32\nsamples = 3\nvalue = [1, 4]\nclass = 1", fillcolor="#6ab6ec"] ;
559 -> 561 ;
562 [label="gini = 0.0\nsamples = 2\nvalue = [0, 4]\nclass = 1", fillcolor="#399de5"] ;
561 -> 562 ;
563 [label="gini = 0.0\nsamples = 1\nvalue = [1, 0]\nclass = 0", fillcolor="#e58139"] ;
561 -> 563 ;
564 [label="gini = 0.0\nsamples = 1\nvalue = [3, 0]\nclass = 0", fillcolor="#e58139"] ;
460 -> 564 ;
565 [label="king <= 3.5\ngini = 0.28\nsamples = 9\nvalue = [10, 2]\nclass = 0", fillcolor="#ea9a61"] ;
459 -> 565 ;
566 [label="gini = 0.0\nsamples = 7\nvalue = [10, 0]\nclass = 0", fillcolor="#e58139"] ;
565 -> 566 ;
567 [label="gini = 0.0\nsamples = 2\nvalue = [0, 2]\nclass = 1", fillcolor="#399de5"] ;
565 -> 567 ;
568 [label="gini = 0.0\nsamples = 33\nvalue = [45, 0]\nclass = 0", fillcolor="#e58139"] ;
458 -> 568 ;
569 [label="cia <= 0.5\ngini = 0.44\nsamples = 17\nvalue = [20, 10]\nclass = 0", fillcolor="#f2c09c"] ;
457 -> 569 ;
570 [label="was <= 0.5\ngini = 0.3\nsamples = 11\nvalue = [18, 4]\nclass = 0", fillcolor="#eb9d65"] ;
569 -> 570 ;
571 [label="exciting <= 0.5\ngini = 0.24\nsamples = 10\nvalue = [18, 3]\nclass = 0", fillcolor="#e9965a"] ;
570 -> 571 ;
572 [label="ur <= 5.5\ngini = 0.18\nsamples = 9\nvalue = [18, 2]\nclass = 0", fillcolor="#e88f4f"] ;
571 -> 572 ;
573 [label="gini = 0.0\nsamples = 8\nvalue = [18, 0]\nclass = 0", fillcolor="#e58139"] ;
572 -> 573 ;
574 [label="gini = 0.0\nsamples = 1\nvalue = [0, 2]\nclass = 1", fillcolor="#399de5"] ;
572 -> 574 ;
575 [label="gini = 0.0\nsamples = 1\nvalue = [0, 1]\nclass = 1", fillcolor="#399de5"] ;
571 -> 575 ;
576 [label="gini = 0.0\nsamples = 1\nvalue = [0, 1]\nclass = 1", fillcolor="#399de5"] ;
570 -> 576 ;
577 [label="other <= 0.5\ngini = 0.38\nsamples = 6\nvalue = [2, 6]\nclass = 1", fillcolor="#7bbeee"] ;
569 -> 577 ;
578 [label="gini = 0.0\nsamples = 3\nvalue = [0, 5]\nclass = 1", fillcolor="#399de5"] ;
577 -> 578 ;
579 [label="advantage <= 0.5\ngini = 0.44\nsamples = 3\nvalue = [2, 1]\nclass = 0", fillcolor="#f2c09c"] ;
577 -> 579 ;
580 [label="gini = 0.0\nsamples = 2\nvalue = [2, 0]\nclass = 0", fillcolor="#e58139"] ;
579 -> 580 ;
581 [label="gini = 0.0\nsamples = 1\nvalue = [0, 1]\nclass = 1", fillcolor="#399de5"] ;
579 -> 581 ;
582 [label="gini = 0.0\nsamples = 6\nvalue = [12, 0]\nclass = 0", fillcolor="#e58139"] ;
456 -> 582 ;
583 [label="gini = 0.0\nsamples = 17\nvalue = [27, 0]\nclass = 0", fillcolor="#e58139"] ;
455 -> 583 ;
584 [label="cialis <= 1.0\ngini = 0.26\nsamples = 17\nvalue = [22, 4]\nclass = 0", fillcolor="#ea985d"] ;
454 -> 584 ;
585 [label="understand <= 0.5\ngini = 0.08\nsamples = 16\nvalue = [22, 1]\nclass = 0", fillcolor="#e68742"] ;
584 -> 585 ;
586 [label="gini = 0.0\nsamples = 13\nvalue = [19, 0]\nclass = 0", fillcolor="#e58139"] ;
585 -> 586 ;
587 [label="tr <= 3.0\ngini = 0.38\nsamples = 3\nvalue = [3, 1]\nclass = 0", fillcolor="#eeab7b"] ;
585 -> 587 ;
588 [label="gini = 0.0\nsamples = 1\nvalue = [0, 1]\nclass = 1", fillcolor="#399de5"] ;
587 -> 588 ;
589 [label="gini = 0.0\nsamples = 2\nvalue = [3, 0]\nclass = 0", fillcolor="#e58139"] ;
587 -> 589 ;
590 [label="gini = 0.0\nsamples = 1\nvalue = [0, 3]\nclass = 1", fillcolor="#399de5"] ;
584 -> 590 ;
591 [label="y <= 31.0\ngini = 0.49\nsamples = 168\nvalue = [159, 114]\nclass = 0", fillcolor="#f8dbc7"] ;
453 -> 591 ;
592 [label="per <= 0.5\ngini = 0.21\nsamples = 102\nvalue = [144, 20]\nclass = 0", fillcolor="#e99254"] ;
591 -> 592 ;
593 [label="that <= 3.5\ngini = 0.07\nsamples = 62\nvalue = [102, 4]\nclass = 0", fillcolor="#e68641"] ;
592 -> 593 ;
594 [label="windows <= 0.5\ngini = 0.04\nsamples = 60\nvalue = [100, 2]\nclass = 0", fillcolor="#e6843d"] ;
593 -> 594 ;
595 [label="m <= 14.5\ngini = 0.02\nsamples = 59\nvalue = [100, 1]\nclass = 0", fillcolor="#e5823b"] ;
594 -> 595 ;
596 [label="gini = 0.0\nsamples = 31\nvalue = [50, 0]\nclass = 0", fillcolor="#e58139"] ;
595 -> 596 ;
597 [label="de <= 2.5\ngini = 0.04\nsamples = 28\nvalue = [50, 1]\nclass = 0", fillcolor="#e6843d"] ;
595 -> 597 ;
598 [label="u <= 11.5\ngini = 0.14\nsamples = 9\nvalue = [12, 1]\nclass = 0", fillcolor="#e78c49"] ;
597 -> 598 ;
599 [label="h <= 15.5\ngini = 0.5\nsamples = 2\nvalue = [1, 1]\nclass = 0", fillcolor="#ffffff"] ;
598 -> 599 ;
600 [label="gini = 0.0\nsamples = 1\nvalue = [0, 1]\nclass = 1", fillcolor="#399de5"] ;
599 -> 600 ;
601 [label="gini = 0.0\nsamples = 1\nvalue = [1, 0]\nclass = 0", fillcolor="#e58139"] ;
599 -> 601 ;
602 [label="gini = 0.0\nsamples = 7\nvalue = [11, 0]\nclass = 0", fillcolor="#e58139"] ;
598 -> 602 ;
603 [label="gini = 0.0\nsamples = 19\nvalue = [38, 0]\nclass = 0", fillcolor="#e58139"] ;
597 -> 603 ;
604 [label="gini = 0.0\nsamples = 1\nvalue = [0, 1]\nclass = 1", fillcolor="#399de5"] ;
594 -> 604 ;
605 [label="ff <= 0.5\ngini = 0.5\nsamples = 2\nvalue = [2, 2]\nclass = 0", fillcolor="#ffffff"] ;
593 -> 605 ;
606 [label="gini = 0.0\nsamples = 1\nvalue = [2, 0]\nclass = 0", fillcolor="#e58139"] ;
605 -> 606 ;
607 [label="gini = 0.0\nsamples = 1\nvalue = [0, 2]\nclass = 1", fillcolor="#399de5"] ;
605 -> 607 ;
608 [label="all <= 1.5\ngini = 0.4\nsamples = 40\nvalue = [42, 16]\nclass = 0", fillcolor="#efb184"] ;
592 -> 608 ;
609 [label="hot <= 0.5\ngini = 0.27\nsamples = 29\nvalue = [36, 7]\nclass = 0", fillcolor="#ea9a5f"] ;
608 -> 609 ;
610 [label="visit <= 0.5\ngini = 0.14\nsamples = 26\nvalue = [36, 3]\nclass = 0", fillcolor="#e78c49"] ;
609 -> 610 ;
611 [label="u <= 10.0\ngini = 0.1\nsamples = 25\nvalue = [36, 2]\nclass = 0", fillcolor="#e68844"] ;
610 -> 611 ;
612 [label="gini = 0.0\nsamples = 1\nvalue = [0, 1]\nclass = 1", fillcolor="#399de5"] ;
611 -> 612 ;
613 [label="war <= 1.5\ngini = 0.05\nsamples = 24\nvalue = [36, 1]\nclass = 0", fillcolor="#e6843e"] ;
611 -> 613 ;
614 [label="gini = 0.0\nsamples = 20\nvalue = [31, 0]\nclass = 0", fillcolor="#e58139"] ;
613 -> 614 ;
615 [label="change <= 0.5\ngini = 0.28\nsamples = 4\nvalue = [5, 1]\nclass = 0", fillcolor="#ea9a61"] ;
613 -> 615 ;
616 [label="gini = 0.0\nsamples = 1\nvalue = [0, 1]\nclass = 1", fillcolor="#399de5"] ;
615 -> 616 ;
617 [label="gini = 0.0\nsamples = 3\nvalue = [5, 0]\nclass = 0", fillcolor="#e58139"] ;
615 -> 617 ;
618 [label="gini = 0.0\nsamples = 1\nvalue = [0, 1]\nclass = 1", fillcolor="#399de5"] ;
610 -> 618 ;
619 [label="gini = 0.0\nsamples = 3\nvalue = [0, 4]\nclass = 1", fillcolor="#399de5"] ;
609 -> 619 ;
620 [label="l <= 34.5\ngini = 0.48\nsamples = 11\nvalue = [6, 9]\nclass = 1", fillcolor="#bddef6"] ;
608 -> 620 ;
621 [label="gini = 0.0\nsamples = 4\nvalue = [5, 0]\nclass = 0", fillcolor="#e58139"] ;
620 -> 621 ;
622 [label="got <= 1.0\ngini = 0.18\nsamples = 7\nvalue = [1, 9]\nclass = 1", fillcolor="#4fa8e8"] ;
620 -> 622 ;
623 [label="gini = 0.0\nsamples = 6\nvalue = [0, 9]\nclass = 1", fillcolor="#399de5"] ;
622 -> 623 ;
624 [label="gini = 0.0\nsamples = 1\nvalue = [1, 0]\nclass = 0", fillcolor="#e58139"] ;
622 -> 624 ;
625 [label="no <= 5.5\ngini = 0.24\nsamples = 66\nvalue = [15, 94]\nclass = 1", fillcolor="#59ade9"] ;
591 -> 625 ;
626 [label="ce <= 10.0\ngini = 0.32\nsamples = 6\nvalue = [8, 2]\nclass = 0", fillcolor="#eca06a"] ;
625 -> 626 ;
627 [label="gini = 0.0\nsamples = 5\nvalue = [8, 0]\nclass = 0", fillcolor="#e58139"] ;
626 -> 627 ;
628 [label="gini = 0.0\nsamples = 1\nvalue = [0, 2]\nclass = 1", fillcolor="#399de5"] ;
626 -> 628 ;
629 [label="winfree <= 0.5\ngini = 0.13\nsamples = 60\nvalue = [7, 92]\nclass = 1", fillcolor="#48a4e7"] ;
625 -> 629 ;
630 [label="except <= 0.5\ngini = 0.1\nsamples = 59\nvalue = [5, 92]\nclass = 1", fillcolor="#44a2e6"] ;
629 -> 630 ;
631 [label="ed <= 9.5\ngini = 0.02\nsamples = 57\nvalue = [1, 92]\nclass = 1", fillcolor="#3b9ee5"] ;
630 -> 631 ;
632 [label="we <= 5.0\ngini = 0.28\nsamples = 4\nvalue = [1, 5]\nclass = 1", fillcolor="#61b1ea"] ;
631 -> 632 ;
633 [label="gini = 0.0\nsamples = 3\nvalue = [0, 5]\nclass = 1", fillcolor="#399de5"] ;
632 -> 633 ;
634 [label="gini = 0.0\nsamples = 1\nvalue = [1, 0]\nclass = 0", fillcolor="#e58139"] ;
632 -> 634 ;
635 [label="gini = 0.0\nsamples = 53\nvalue = [0, 87]\nclass = 1", fillcolor="#399de5"] ;
631 -> 635 ;
636 [label="gini = 0.0\nsamples = 2\nvalue = [4, 0]\nclass = 0", fillcolor="#e58139"] ;
630 -> 636 ;
637 [label="gini = 0.0\nsamples = 1\nvalue = [2, 0]\nclass = 0", fillcolor="#e58139"] ;
629 -> 637 ;
638 [label="hot <= 0.5\ngini = 0.42\nsamples = 73\nvalue = [77, 34]\nclass = 0", fillcolor="#f0b990"] ;
452 -> 638 ;
639 [label="fix <= 0.5\ngini = 0.32\nsamples = 63\nvalue = [73, 18]\nclass = 0", fillcolor="#eba06a"] ;
638 -> 639 ;
640 [label="without <= 0.5\ngini = 0.26\nsamples = 58\nvalue = [72, 13]\nclass = 0", fillcolor="#ea985d"] ;
639 -> 640 ;
641 [label="mother <= 0.5\ngini = 0.18\nsamples = 54\nvalue = [72, 8]\nclass = 0", fillcolor="#e88f4f"] ;
640 -> 641 ;
642 [label="paste <= 0.5\ngini = 0.14\nsamples = 53\nvalue = [72, 6]\nclass = 0", fillcolor="#e78c49"] ;
641 -> 642 ;
643 [label="extra <= 0.5\ngini = 0.1\nsamples = 51\nvalue = [72, 4]\nclass = 0", fillcolor="#e68844"] ;
642 -> 643 ;
644 [label="h <= 205.5\ngini = 0.08\nsamples = 50\nvalue = [72, 3]\nclass = 0", fillcolor="#e68641"] ;
643 -> 644 ;
645 [label="moment <= 0.5\ngini = 0.05\nsamples = 49\nvalue = [72, 2]\nclass = 0", fillcolor="#e6843e"] ;
644 -> 645 ;
646 [label="do <= 0.5\ngini = 0.03\nsamples = 48\nvalue = [72, 1]\nclass = 0", fillcolor="#e5833c"] ;
645 -> 646 ;
647 [label="mo <= 2.5\ngini = 0.09\nsamples = 14\nvalue = [21, 1]\nclass = 0", fillcolor="#e68742"] ;
646 -> 647 ;
648 [label="gini = 0.0\nsamples = 10\nvalue = [15, 0]\nclass = 0", fillcolor="#e58139"] ;
647 -> 648 ;
649 [label="payment <= 0.5\ngini = 0.24\nsamples = 4\nvalue = [6, 1]\nclass = 0", fillcolor="#e9965a"] ;
647 -> 649 ;
650 [label="gini = 0.0\nsamples = 3\nvalue = [6, 0]\nclass = 0", fillcolor="#e58139"] ;
649 -> 650 ;
651 [label="gini = 0.0\nsamples = 1\nvalue = [0, 1]\nclass = 1", fillcolor="#399de5"] ;
649 -> 651 ;
652 [label="gini = 0.0\nsamples = 34\nvalue = [51, 0]\nclass = 0", fillcolor="#e58139"] ;
646 -> 652 ;
653 [label="gini = 0.0\nsamples = 1\nvalue = [0, 1]\nclass = 1", fillcolor="#399de5"] ;
645 -> 653 ;
654 [label="gini = 0.0\nsamples = 1\nvalue = [0, 1]\nclass = 1", fillcolor="#399de5"] ;
644 -> 654 ;
655 [label="gini = 0.0\nsamples = 1\nvalue = [0, 1]\nclass = 1", fillcolor="#399de5"] ;
643 -> 655 ;
656 [label="gini = 0.0\nsamples = 2\nvalue = [0, 2]\nclass = 1", fillcolor="#399de5"] ;
642 -> 656 ;
657 [label="gini = 0.0\nsamples = 1\nvalue = [0, 2]\nclass = 1", fillcolor="#399de5"] ;
641 -> 657 ;
658 [label="gini = 0.0\nsamples = 4\nvalue = [0, 5]\nclass = 1", fillcolor="#399de5"] ;
640 -> 658 ;
659 [label="ten <= 1.5\ngini = 0.28\nsamples = 5\nvalue = [1, 5]\nclass = 1", fillcolor="#61b1ea"] ;
639 -> 659 ;
660 [label="gini = 0.0\nsamples = 3\nvalue = [0, 4]\nclass = 1", fillcolor="#399de5"] ;
659 -> 660 ;
661 [label="as <= 20.5\ngini = 0.5\nsamples = 2\nvalue = [1, 1]\nclass = 0", fillcolor="#ffffff"] ;
659 -> 661 ;
662 [label="gini = 0.0\nsamples = 1\nvalue = [1, 0]\nclass = 0", fillcolor="#e58139"] ;
661 -> 662 ;
663 [label="gini = 0.0\nsamples = 1\nvalue = [0, 1]\nclass = 1", fillcolor="#399de5"] ;
661 -> 663 ;
664 [label="serve <= 4.0\ngini = 0.32\nsamples = 10\nvalue = [4, 16]\nclass = 1", fillcolor="#6ab6ec"] ;
638 -> 664 ;
665 [label="n <= 58.5\ngini = 0.11\nsamples = 9\nvalue = [1, 16]\nclass = 1", fillcolor="#45a3e7"] ;
664 -> 665 ;
666 [label="if <= 1.5\ngini = 0.28\nsamples = 4\nvalue = [1, 5]\nclass = 1", fillcolor="#61b1ea"] ;
665 -> 666 ;
667 [label="gini = 0.0\nsamples = 1\nvalue = [1, 0]\nclass = 0", fillcolor="#e58139"] ;
666 -> 667 ;
668 [label="gini = 0.0\nsamples = 3\nvalue = [0, 5]\nclass = 1", fillcolor="#399de5"] ;
666 -> 668 ;
669 [label="gini = 0.0\nsamples = 5\nvalue = [0, 11]\nclass = 1", fillcolor="#399de5"] ;
665 -> 669 ;
670 [label="gini = 0.0\nsamples = 1\nvalue = [3, 0]\nclass = 0", fillcolor="#e58139"] ;
664 -> 670 ;
671 [label="gini = 0.0\nsamples = 41\nvalue = [72, 0]\nclass = 0", fillcolor="#e58139"] ;
451 -> 671 ;
672 [label="f <= 50.5\ngini = 0.41\nsamples = 1035\nvalue = [1141, 469]\nclass = 0", fillcolor="#f0b58a"] ;
0 -> 672 [labeldistance=2.5, labelangle=-45, headlabel="False"] ;
673 [label="title <= 0.5\ngini = 0.36\nsamples = 903\nvalue = [1075, 325]\nclass = 0", fillcolor="#eda775"] ;
672 -> 673 ;
674 [label="he <= 4.5\ngini = 0.31\nsamples = 848\nvalue = [1067, 253]\nclass = 0", fillcolor="#eb9f68"] ;
673 -> 674 ;
675 [label="mo <= 1.5\ngini = 0.45\nsamples = 278\nvalue = [276, 144]\nclass = 0", fillcolor="#f3c3a0"] ;
674 -> 675 ;
676 [label="rest <= 0.5\ngini = 0.34\nsamples = 214\nvalue = [249, 68]\nclass = 0", fillcolor="#eca36f"] ;
675 -> 676 ;
677 [label="info <= 3.0\ngini = 0.31\nsamples = 209\nvalue = [248, 59]\nclass = 0", fillcolor="#eb9f68"] ;
676 -> 677 ;
678 [label="time <= 0.5\ngini = 0.3\nsamples = 208\nvalue = [248, 55]\nclass = 0", fillcolor="#eb9d65"] ;
677 -> 678 ;
679 [label="mails <= 0.5\ngini = 0.25\nsamples = 193\nvalue = [237, 40]\nclass = 0", fillcolor="#e9965a"] ;
678 -> 679 ;
680 [label="our <= 0.5\ngini = 0.24\nsamples = 191\nvalue = [237, 38]\nclass = 0", fillcolor="#e99559"] ;
679 -> 680 ;
681 [label="fun <= 0.5\ngini = 0.13\nsamples = 132\nvalue = [177, 13]\nclass = 0", fillcolor="#e78a48"] ;
680 -> 681 ;
682 [label="ever <= 0.5\ngini = 0.11\nsamples = 130\nvalue = [176, 11]\nclass = 0", fillcolor="#e78945"] ;
681 -> 682 ;
683 [label="at <= 1.5\ngini = 0.07\nsamples = 118\nvalue = [166, 6]\nclass = 0", fillcolor="#e68640"] ;
682 -> 683 ;
684 [label="la <= 1.5\ngini = 0.13\nsamples = 62\nvalue = [78, 6]\nclass = 0", fillcolor="#e78b48"] ;
683 -> 684 ;
685 [label="ea <= 1.5\ngini = 0.05\nsamples = 54\nvalue = [72, 2]\nclass = 0", fillcolor="#e6843e"] ;
684 -> 685 ;
686 [label="c <= 1.5\ngini = 0.17\nsamples = 15\nvalue = [20, 2]\nclass = 0", fillcolor="#e88e4d"] ;
685 -> 686 ;
687 [label="gini = 0.0\nsamples = 1\nvalue = [0, 1]\nclass = 1", fillcolor="#399de5"] ;
686 -> 687 ;
688 [label="fee <= 0.5\ngini = 0.09\nsamples = 14\nvalue = [20, 1]\nclass = 0", fillcolor="#e68743"] ;
686 -> 688 ;
689 [label="gini = 0.0\nsamples = 12\nvalue = [18, 0]\nclass = 0", fillcolor="#e58139"] ;
688 -> 689 ;
690 [label="it <= 0.5\ngini = 0.44\nsamples = 2\nvalue = [2, 1]\nclass = 0", fillcolor="#f2c09c"] ;
688 -> 690 ;
691 [label="gini = 0.0\nsamples = 1\nvalue = [2, 0]\nclass = 0", fillcolor="#e58139"] ;
690 -> 691 ;
692 [label="gini = 0.0\nsamples = 1\nvalue = [0, 1]\nclass = 1", fillcolor="#399de5"] ;
690 -> 692 ;
693 [label="gini = 0.0\nsamples = 39\nvalue = [52, 0]\nclass = 0", fillcolor="#e58139"] ;
685 -> 693 ;
694 [label="se <= 3.5\ngini = 0.48\nsamples = 8\nvalue = [6, 4]\nclass = 0", fillcolor="#f6d5bd"] ;
684 -> 694 ;
695 [label="was <= 1.5\ngini = 0.49\nsamples = 7\nvalue = [3, 4]\nclass = 1", fillcolor="#cee6f8"] ;
694 -> 695 ;
696 [label="hl <= 0.5\ngini = 0.44\nsamples = 6\nvalue = [2, 4]\nclass = 1", fillcolor="#9ccef2"] ;
695 -> 696 ;
697 [label="et <= 1.0\ngini = 0.32\nsamples = 5\nvalue = [1, 4]\nclass = 1", fillcolor="#6ab6ec"] ;
696 -> 697 ;
698 [label="gini = 0.0\nsamples = 4\nvalue = [0, 4]\nclass = 1", fillcolor="#399de5"] ;
697 -> 698 ;
699 [label="gini = 0.0\nsamples = 1\nvalue = [1, 0]\nclass = 0", fillcolor="#e58139"] ;
697 -> 699 ;
700 [label="gini = 0.0\nsamples = 1\nvalue = [1, 0]\nclass = 0", fillcolor="#e58139"] ;
696 -> 700 ;
701 [label="gini = 0.0\nsamples = 1\nvalue = [1, 0]\nclass = 0", fillcolor="#e58139"] ;
695 -> 701 ;
702 [label="gini = 0.0\nsamples = 1\nvalue = [3, 0]\nclass = 0", fillcolor="#e58139"] ;
694 -> 702 ;
703 [label="gini = 0.0\nsamples = 56\nvalue = [88, 0]\nclass = 0", fillcolor="#e58139"] ;
683 -> 703 ;
704 [label="her <= 0.5\ngini = 0.44\nsamples = 12\nvalue = [10, 5]\nclass = 0", fillcolor="#f2c09c"] ;
682 -> 704 ;
705 [label="than <= 0.5\ngini = 0.5\nsamples = 8\nvalue = [5, 5]\nclass = 0", fillcolor="#ffffff"] ;
704 -> 705 ;
706 [label="gini = 0.0\nsamples = 5\nvalue = [0, 5]\nclass = 1", fillcolor="#399de5"] ;
705 -> 706 ;
707 [label="gini = 0.0\nsamples = 3\nvalue = [5, 0]\nclass = 0", fillcolor="#e58139"] ;
705 -> 707 ;
708 [label="gini = 0.0\nsamples = 4\nvalue = [5, 0]\nclass = 0", fillcolor="#e58139"] ;
704 -> 708 ;
709 [label="et <= 1.5\ngini = 0.44\nsamples = 2\nvalue = [1, 2]\nclass = 1", fillcolor="#9ccef2"] ;
681 -> 709 ;
710 [label="gini = 0.0\nsamples = 1\nvalue = [1, 0]\nclass = 0", fillcolor="#e58139"] ;
709 -> 710 ;
711 [label="gini = 0.0\nsamples = 1\nvalue = [0, 2]\nclass = 1", fillcolor="#399de5"] ;
709 -> 711 ;
712 [label="po <= 1.5\ngini = 0.42\nsamples = 59\nvalue = [60, 25]\nclass = 0", fillcolor="#f0b58b"] ;
680 -> 712 ;
713 [label="site <= 0.5\ngini = 0.46\nsamples = 49\nvalue = [45, 25]\nclass = 0", fillcolor="#f3c7a7"] ;
712 -> 713 ;
714 [label="q <= 1.5\ngini = 0.43\nsamples = 45\nvalue = [43, 19]\nclass = 0", fillcolor="#f0b990"] ;
713 -> 714 ;
715 [label="l <= 5.5\ngini = 0.36\nsamples = 40\nvalue = [42, 13]\nclass = 0", fillcolor="#eda876"] ;
714 -> 715 ;
716 [label="x <= 0.5\ngini = 0.38\nsamples = 5\nvalue = [2, 6]\nclass = 1", fillcolor="#7bbeee"] ;
715 -> 716 ;
717 [label="to <= 0.5\ngini = 0.24\nsamples = 4\nvalue = [1, 6]\nclass = 1", fillcolor="#5aade9"] ;
716 -> 717 ;
718 [label="gini = 0.0\nsamples = 3\nvalue = [0, 6]\nclass = 1", fillcolor="#399de5"] ;
717 -> 718 ;
719 [label="gini = 0.0\nsamples = 1\nvalue = [1, 0]\nclass = 0", fillcolor="#e58139"] ;
717 -> 719 ;
720 [label="gini = 0.0\nsamples = 1\nvalue = [1, 0]\nclass = 0", fillcolor="#e58139"] ;
716 -> 720 ;
721 [label="u <= 19.0\ngini = 0.25\nsamples = 35\nvalue = [40, 7]\nclass = 0", fillcolor="#ea975c"] ;
715 -> 721 ;
722 [label="k <= 7.5\ngini = 0.15\nsamples = 29\nvalue = [35, 3]\nclass = 0", fillcolor="#e78c4a"] ;
721 -> 722 ;
723 [label="offers <= 0.5\ngini = 0.1\nsamples = 28\nvalue = [35, 2]\nclass = 0", fillcolor="#e68844"] ;
722 -> 723 ;
724 [label="cross <= 0.5\ngini = 0.05\nsamples = 27\nvalue = [35, 1]\nclass = 0", fillcolor="#e6853f"] ;
723 -> 724 ;
725 [label="gini = 0.0\nsamples = 25\nvalue = [33, 0]\nclass = 0", fillcolor="#e58139"] ;
724 -> 725 ;
726 [label="buyback <= 0.5\ngini = 0.44\nsamples = 2\nvalue = [2, 1]\nclass = 0", fillcolor="#f2c09c"] ;
724 -> 726 ;
727 [label="gini = 0.0\nsamples = 1\nvalue = [0, 1]\nclass = 1", fillcolor="#399de5"] ;
726 -> 727 ;
728 [label="gini = 0.0\nsamples = 1\nvalue = [2, 0]\nclass = 0", fillcolor="#e58139"] ;
726 -> 728 ;
729 [label="gini = 0.0\nsamples = 1\nvalue = [0, 1]\nclass = 1", fillcolor="#399de5"] ;
723 -> 729 ;
730 [label="gini = 0.0\nsamples = 1\nvalue = [0, 1]\nclass = 1", fillcolor="#399de5"] ;
722 -> 730 ;
731 [label="der <= 1.5\ngini = 0.49\nsamples = 6\nvalue = [5, 4]\nclass = 0", fillcolor="#fae6d7"] ;
721 -> 731 ;
732 [label="a <= 51.5\ngini = 0.32\nsamples = 4\nvalue = [1, 4]\nclass = 1", fillcolor="#6ab6ec"] ;
731 -> 732 ;
733 [label="gini = 0.0\nsamples = 3\nvalue = [0, 4]\nclass = 1", fillcolor="#399de5"] ;
732 -> 733 ;
734 [label="gini = 0.0\nsamples = 1\nvalue = [1, 0]\nclass = 0", fillcolor="#e58139"] ;
732 -> 734 ;
735 [label="gini = 0.0\nsamples = 2\nvalue = [4, 0]\nclass = 0", fillcolor="#e58139"] ;
731 -> 735 ;
736 [label="st <= 1.0\ngini = 0.24\nsamples = 5\nvalue = [1, 6]\nclass = 1", fillcolor="#5aade9"] ;
714 -> 736 ;
737 [label="gini = 0.0\nsamples = 1\nvalue = [1, 0]\nclass = 0", fillcolor="#e58139"] ;
736 -> 737 ;
738 [label="gini = 0.0\nsamples = 4\nvalue = [0, 6]\nclass = 1", fillcolor="#399de5"] ;
736 -> 738 ;
739 [label="tool <= 0.5\ngini = 0.38\nsamples = 4\nvalue = [2, 6]\nclass = 1", fillcolor="#7bbeee"] ;
713 -> 739 ;
740 [label="gini = 0.0\nsamples = 3\nvalue = [0, 6]\nclass = 1", fillcolor="#399de5"] ;
739 -> 740 ;
741 [label="gini = 0.0\nsamples = 1\nvalue = [2, 0]\nclass = 0", fillcolor="#e58139"] ;
739 -> 741 ;
742 [label="gini = 0.0\nsamples = 10\nvalue = [15, 0]\nclass = 0", fillcolor="#e58139"] ;
712 -> 742 ;
743 [label="gini = 0.0\nsamples = 2\nvalue = [0, 2]\nclass = 1", fillcolor="#399de5"] ;
679 -> 743 ;
744 [label="one <= 0.5\ngini = 0.49\nsamples = 15\nvalue = [11, 15]\nclass = 1", fillcolor="#cae5f8"] ;
678 -> 744 ;
745 [label="v <= 3.5\ngini = 0.36\nsamples = 8\nvalue = [10, 3]\nclass = 0", fillcolor="#eda774"] ;
744 -> 745 ;
746 [label="an <= 2.0\ngini = 0.49\nsamples = 4\nvalue = [4, 3]\nclass = 0", fillcolor="#f8e0ce"] ;
745 -> 746 ;
747 [label="gini = 0.0\nsamples = 1\nvalue = [0, 3]\nclass = 1", fillcolor="#399de5"] ;
746 -> 747 ;
748 [label="gini = 0.0\nsamples = 3\nvalue = [4, 0]\nclass = 0", fillcolor="#e58139"] ;
746 -> 748 ;
749 [label="gini = 0.0\nsamples = 4\nvalue = [6, 0]\nclass = 0", fillcolor="#e58139"] ;
745 -> 749 ;
750 [label="sit <= 0.5\ngini = 0.14\nsamples = 7\nvalue = [1, 12]\nclass = 1", fillcolor="#49a5e7"] ;
744 -> 750 ;
751 [label="gini = 0.0\nsamples = 6\nvalue = [0, 12]\nclass = 1", fillcolor="#399de5"] ;
750 -> 751 ;
752 [label="gini = 0.0\nsamples = 1\nvalue = [1, 0]\nclass = 0", fillcolor="#e58139"] ;
750 -> 752 ;
753 [label="gini = 0.0\nsamples = 1\nvalue = [0, 4]\nclass = 1", fillcolor="#399de5"] ;
677 -> 753 ;
754 [label="liz <= 2.0\ngini = 0.18\nsamples = 5\nvalue = [1, 9]\nclass = 1", fillcolor="#4fa8e8"] ;
676 -> 754 ;
755 [label="gini = 0.0\nsamples = 4\nvalue = [0, 9]\nclass = 1", fillcolor="#399de5"] ;
754 -> 755 ;
756 [label="gini = 0.0\nsamples = 1\nvalue = [1, 0]\nclass = 0", fillcolor="#e58139"] ;
754 -> 756 ;
757 [label="issues <= 0.5\ngini = 0.39\nsamples = 64\nvalue = [27, 76]\nclass = 1", fillcolor="#7fc0ee"] ;
675 -> 757 ;
758 [label="i <= 11.0\ngini = 0.35\nsamples = 61\nvalue = [22, 76]\nclass = 1", fillcolor="#72b9ed"] ;
757 -> 758 ;
759 [label="gini = 0.0\nsamples = 5\nvalue = [7, 0]\nclass = 0", fillcolor="#e58139"] ;
758 -> 759 ;
760 [label="beaumont <= 0.5\ngini = 0.28\nsamples = 56\nvalue = [15, 76]\nclass = 1", fillcolor="#60b0ea"] ;
758 -> 760 ;
761 [label="hanks <= 0.5\ngini = 0.22\nsamples = 54\nvalue = [11, 76]\nclass = 1", fillcolor="#56abe9"] ;
760 -> 761 ;
762 [label="j <= 4.5\ngini = 0.12\nsamples = 50\nvalue = [5, 76]\nclass = 1", fillcolor="#46a3e7"] ;
761 -> 762 ;
763 [label="ll <= 5.0\ngini = 0.05\nsamples = 45\nvalue = [2, 73]\nclass = 1", fillcolor="#3ea0e6"] ;
762 -> 763 ;
764 [label="gini = 0.0\nsamples = 43\nvalue = [0, 69]\nclass = 1", fillcolor="#399de5"] ;
763 -> 764 ;
765 [label="yvette <= 0.5\ngini = 0.44\nsamples = 2\nvalue = [2, 4]\nclass = 1", fillcolor="#9ccef2"] ;
763 -> 765 ;
766 [label="gini = 0.0\nsamples = 1\nvalue = [0, 4]\nclass = 1", fillcolor="#399de5"] ;
765 -> 766 ;
767 [label="gini = 0.0\nsamples = 1\nvalue = [2, 0]\nclass = 0", fillcolor="#e58139"] ;
765 -> 767 ;
768 [label="board <= 0.5\ngini = 0.5\nsamples = 5\nvalue = [3, 3]\nclass = 0", fillcolor="#ffffff"] ;
762 -> 768 ;
769 [label="ok <= 1.5\ngini = 0.48\nsamples = 4\nvalue = [2, 3]\nclass = 1", fillcolor="#bddef6"] ;
768 -> 769 ;
770 [label="gini = 0.0\nsamples = 2\nvalue = [2, 0]\nclass = 0", fillcolor="#e58139"] ;
769 -> 770 ;
771 [label="gini = 0.0\nsamples = 2\nvalue = [0, 3]\nclass = 1", fillcolor="#399de5"] ;
769 -> 771 ;
772 [label="gini = 0.0\nsamples = 1\nvalue = [1, 0]\nclass = 0", fillcolor="#e58139"] ;
768 -> 772 ;
773 [label="gini = 0.0\nsamples = 4\nvalue = [6, 0]\nclass = 0", fillcolor="#e58139"] ;
761 -> 773 ;
774 [label="gini = 0.0\nsamples = 2\nvalue = [4, 0]\nclass = 0", fillcolor="#e58139"] ;
760 -> 774 ;
775 [label="gini = 0.0\nsamples = 3\nvalue = [5, 0]\nclass = 0", fillcolor="#e58139"] ;
757 -> 775 ;
776 [label="drugs <= 0.5\ngini = 0.21\nsamples = 570\nvalue = [791, 109]\nclass = 0", fillcolor="#e99254"] ;
674 -> 776 ;
777 [label="ooo <= 0.5\ngini = 0.2\nsamples = 565\nvalue = [791, 103]\nclass = 0", fillcolor="#e89153"] ;
776 -> 777 ;
778 [label="sexual <= 0.5\ngini = 0.19\nsamples = 561\nvalue = [791, 94]\nclass = 0", fillcolor="#e89051"] ;
777 -> 778 ;
779 [label="mai <= 2.5\ngini = 0.18\nsamples = 554\nvalue = [791, 85]\nclass = 0", fillcolor="#e88f4e"] ;
778 -> 779 ;
780 [label="count <= 4.5\ngini = 0.13\nsamples = 501\nvalue = [740, 55]\nclass = 0", fillcolor="#e78a48"] ;
779 -> 780 ;
781 [label="quality <= 0.5\ngini = 0.12\nsamples = 494\nvalue = [736, 50]\nclass = 0", fillcolor="#e78a46"] ;
780 -> 781 ;
782 [label="yourself <= 0.5\ngini = 0.1\nsamples = 488\nvalue = [733, 42]\nclass = 0", fillcolor="#e68844"] ;
781 -> 782 ;
783 [label="offer <= 0.5\ngini = 0.09\nsamples = 485\nvalue = [732, 36]\nclass = 0", fillcolor="#e68743"] ;
782 -> 783 ;
784 [label="confidential <= 0.5\ngini = 0.08\nsamples = 470\nvalue = [711, 32]\nclass = 0", fillcolor="#e68742"] ;
783 -> 784 ;
785 [label="www <= 0.5\ngini = 0.07\nsamples = 463\nvalue = [704, 26]\nclass = 0", fillcolor="#e68640"] ;
784 -> 785 ;
786 [label="trust <= 1.5\ngini = 0.06\nsamples = 454\nvalue = [695, 22]\nclass = 0", fillcolor="#e6853f"] ;
785 -> 786 ;
787 [label="notification <= 1.5\ngini = 0.05\nsamples = 452\nvalue = [695, 20]\nclass = 0", fillcolor="#e6853f"] ;
786 -> 787 ;
788 [label="hot <= 2.5\ngini = 0.05\nsamples = 451\nvalue = [695, 19]\nclass = 0", fillcolor="#e6843e"] ;
787 -> 788 ;
789 [label="news <= 2.0\ngini = 0.05\nsamples = 450\nvalue = [695, 18]\nclass = 0", fillcolor="#e6843e"] ;
788 -> 789 ;
790 [label="ed <= 2.5\ngini = 0.05\nsamples = 449\nvalue = [695, 17]\nclass = 0", fillcolor="#e6843e"] ;
789 -> 790 ;
791 [label="regards <= 0.5\ngini = 0.28\nsamples = 61\nvalue = [77, 16]\nclass = 0", fillcolor="#ea9b62"] ;
790 -> 791 ;
792 [label="z <= 2.5\ngini = 0.24\nsamples = 58\nvalue = [75, 12]\nclass = 0", fillcolor="#e99559"] ;
791 -> 792 ;
793 [label="at <= 3.5\ngini = 0.18\nsamples = 55\nvalue = [74, 8]\nclass = 0", fillcolor="#e88f4e"] ;
792 -> 793 ;
794 [label="height <= 0.5\ngini = 0.3\nsamples = 23\nvalue = [26, 6]\nclass = 0", fillcolor="#eb9e67"] ;
793 -> 794 ;
795 [label="dec <= 1.5\ngini = 0.19\nsamples = 22\nvalue = [26, 3]\nclass = 0", fillcolor="#e89050"] ;
794 -> 795 ;
796 [label="xp <= 0.5\ngini = 0.13\nsamples = 21\nvalue = [26, 2]\nclass = 0", fillcolor="#e78b48"] ;
795 -> 796 ;
797 [label="ect <= 1.5\ngini = 0.07\nsamples = 20\nvalue = [26, 1]\nclass = 0", fillcolor="#e68641"] ;
796 -> 797 ;
798 [label="houston <= 0.5\ngini = 0.15\nsamples = 9\nvalue = [11, 1]\nclass = 0", fillcolor="#e78c4b"] ;
797 -> 798 ;
799 [label="s <= 28.5\ngini = 0.17\nsamples = 8\nvalue = [10, 1]\nclass = 0", fillcolor="#e88e4d"] ;
798 -> 799 ;
800 [label="gini = 0.0\nsamples = 7\nvalue = [10, 0]\nclass = 0", fillcolor="#e58139"] ;
799 -> 800 ;
801 [label="gini = 0.0\nsamples = 1\nvalue = [0, 1]\nclass = 1", fillcolor="#399de5"] ;
799 -> 801 ;
802 [label="gini = 0.0\nsamples = 1\nvalue = [1, 0]\nclass = 0", fillcolor="#e58139"] ;
798 -> 802 ;
803 [label="gini = 0.0\nsamples = 11\nvalue = [15, 0]\nclass = 0", fillcolor="#e58139"] ;
797 -> 803 ;
804 [label="gini = 0.0\nsamples = 1\nvalue = [0, 1]\nclass = 1", fillcolor="#399de5"] ;
796 -> 804 ;
805 [label="gini = 0.0\nsamples = 1\nvalue = [0, 1]\nclass = 1", fillcolor="#399de5"] ;
795 -> 805 ;
806 [label="gini = 0.0\nsamples = 1\nvalue = [0, 3]\nclass = 1", fillcolor="#399de5"] ;
794 -> 806 ;
807 [label="broker <= 0.5\ngini = 0.08\nsamples = 32\nvalue = [48, 2]\nclass = 0", fillcolor="#e68641"] ;
793 -> 807 ;
808 [label="gini = 0.0\nsamples = 31\nvalue = [48, 0]\nclass = 0", fillcolor="#e58139"] ;
807 -> 808 ;
809 [label="gini = 0.0\nsamples = 1\nvalue = [0, 2]\nclass = 1", fillcolor="#399de5"] ;
807 -> 809 ;
810 [label="solmonson <= 0.5\ngini = 0.32\nsamples = 3\nvalue = [1, 4]\nclass = 1", fillcolor="#6ab6ec"] ;
792 -> 810 ;
811 [label="gini = 0.0\nsamples = 2\nvalue = [0, 4]\nclass = 1", fillcolor="#399de5"] ;
810 -> 811 ;
812 [label="gini = 0.0\nsamples = 1\nvalue = [1, 0]\nclass = 0", fillcolor="#e58139"] ;
810 -> 812 ;
813 [label="htm <= 0.5\ngini = 0.44\nsamples = 3\nvalue = [2, 4]\nclass = 1", fillcolor="#9ccef2"] ;
791 -> 813 ;
814 [label="gini = 0.0\nsamples = 1\nvalue = [2, 0]\nclass = 0", fillcolor="#e58139"] ;
813 -> 814 ;
815 [label="gini = 0.0\nsamples = 2\nvalue = [0, 4]\nclass = 1", fillcolor="#399de5"] ;
813 -> 815 ;
816 [label="debt <= 0.5\ngini = 0.0\nsamples = 388\nvalue = [618, 1]\nclass = 0", fillcolor="#e58139"] ;
790 -> 816 ;
817 [label="gini = 0.0\nsamples = 387\nvalue = [618, 0]\nclass = 0", fillcolor="#e58139"] ;
816 -> 817 ;
818 [label="gini = 0.0\nsamples = 1\nvalue = [0, 1]\nclass = 1", fillcolor="#399de5"] ;
816 -> 818 ;
819 [label="gini = 0.0\nsamples = 1\nvalue = [0, 1]\nclass = 1", fillcolor="#399de5"] ;
789 -> 819 ;
820 [label="gini = 0.0\nsamples = 1\nvalue = [0, 1]\nclass = 1", fillcolor="#399de5"] ;
788 -> 820 ;
821 [label="gini = 0.0\nsamples = 1\nvalue = [0, 1]\nclass = 1", fillcolor="#399de5"] ;
787 -> 821 ;
822 [label="gini = 0.0\nsamples = 2\nvalue = [0, 2]\nclass = 1", fillcolor="#399de5"] ;
786 -> 822 ;
823 [label="br <= 1.5\ngini = 0.43\nsamples = 9\nvalue = [9, 4]\nclass = 0", fillcolor="#f1b991"] ;
785 -> 823 ;
824 [label="v <= 12.5\ngini = 0.3\nsamples = 8\nvalue = [9, 2]\nclass = 0", fillcolor="#eb9d65"] ;
823 -> 824 ;
825 [label="gini = 0.0\nsamples = 7\nvalue = [9, 0]\nclass = 0", fillcolor="#e58139"] ;
824 -> 825 ;
826 [label="gini = 0.0\nsamples = 1\nvalue = [0, 2]\nclass = 1", fillcolor="#399de5"] ;
824 -> 826 ;
827 [label="gini = 0.0\nsamples = 1\nvalue = [0, 2]\nclass = 1", fillcolor="#399de5"] ;
823 -> 827 ;
828 [label="ten <= 0.5\ngini = 0.5\nsamples = 7\nvalue = [7, 6]\nclass = 0", fillcolor="#fbede3"] ;
784 -> 828 ;
829 [label="thomas <= 0.5\ngini = 0.24\nsamples = 4\nvalue = [1, 6]\nclass = 1", fillcolor="#5aade9"] ;
828 -> 829 ;
830 [label="gini = 0.0\nsamples = 3\nvalue = [0, 6]\nclass = 1", fillcolor="#399de5"] ;
829 -> 830 ;
831 [label="gini = 0.0\nsamples = 1\nvalue = [1, 0]\nclass = 0", fillcolor="#e58139"] ;
829 -> 831 ;
832 [label="gini = 0.0\nsamples = 3\nvalue = [6, 0]\nclass = 0", fillcolor="#e58139"] ;
828 -> 832 ;
833 [label="basis <= 0.5\ngini = 0.27\nsamples = 15\nvalue = [21, 4]\nclass = 0", fillcolor="#ea995f"] ;
783 -> 833 ;
834 [label="i <= 22.5\ngini = 0.1\nsamples = 11\nvalue = [18, 1]\nclass = 0", fillcolor="#e68844"] ;
833 -> 834 ;
835 [label="gini = 0.0\nsamples = 1\nvalue = [0, 1]\nclass = 1", fillcolor="#399de5"] ;
834 -> 835 ;
836 [label="gini = 0.0\nsamples = 10\nvalue = [18, 0]\nclass = 0", fillcolor="#e58139"] ;
834 -> 836 ;
837 [label="are <= 3.5\ngini = 0.5\nsamples = 4\nvalue = [3, 3]\nclass = 0", fillcolor="#ffffff"] ;
833 -> 837 ;
838 [label="gini = 0.0\nsamples = 2\nvalue = [0, 3]\nclass = 1", fillcolor="#399de5"] ;
837 -> 838 ;
839 [label="gini = 0.0\nsamples = 2\nvalue = [3, 0]\nclass = 0", fillcolor="#e58139"] ;
837 -> 839 ;
840 [label="rm <= 1.5\ngini = 0.24\nsamples = 3\nvalue = [1, 6]\nclass = 1", fillcolor="#5aade9"] ;
782 -> 840 ;
841 [label="gini = 0.0\nsamples = 2\nvalue = [0, 6]\nclass = 1", fillcolor="#399de5"] ;
840 -> 841 ;
842 [label="gini = 0.0\nsamples = 1\nvalue = [1, 0]\nclass = 0", fillcolor="#e58139"] ;
840 -> 842 ;
843 [label="the <= 7.0\ngini = 0.4\nsamples = 6\nvalue = [3, 8]\nclass = 1", fillcolor="#83c2ef"] ;
781 -> 843 ;
844 [label="gini = 0.0\nsamples = 4\nvalue = [0, 8]\nclass = 1", fillcolor="#399de5"] ;
843 -> 844 ;
845 [label="gini = 0.0\nsamples = 2\nvalue = [3, 0]\nclass = 0", fillcolor="#e58139"] ;
843 -> 845 ;
846 [label="you <= 10.0\ngini = 0.49\nsamples = 7\nvalue = [4, 5]\nclass = 1", fillcolor="#d7ebfa"] ;
780 -> 846 ;
847 [label="gini = 0.0\nsamples = 4\nvalue = [4, 0]\nclass = 0", fillcolor="#e58139"] ;
846 -> 847 ;
848 [label="gini = 0.0\nsamples = 3\nvalue = [0, 5]\nclass = 1", fillcolor="#399de5"] ;
846 -> 848 ;
849 [label="c <= 15.0\ngini = 0.47\nsamples = 53\nvalue = [51, 30]\nclass = 0", fillcolor="#f4cbad"] ;
779 -> 849 ;
850 [label="gini = 0.0\nsamples = 2\nvalue = [0, 7]\nclass = 1", fillcolor="#399de5"] ;
849 -> 850 ;
851 [label="winning <= 0.5\ngini = 0.43\nsamples = 51\nvalue = [51, 23]\nclass = 0", fillcolor="#f1ba92"] ;
849 -> 851 ;
852 [label="thanks <= 0.5\ngini = 0.36\nsamples = 47\nvalue = [51, 16]\nclass = 0", fillcolor="#eda977"] ;
851 -> 852 ;
853 [label="side <= 0.5\ngini = 0.44\nsamples = 35\nvalue = [34, 16]\nclass = 0", fillcolor="#f1bc96"] ;
852 -> 853 ;
854 [label="www <= 1.5\ngini = 0.34\nsamples = 30\nvalue = [32, 9]\nclass = 0", fillcolor="#eca471"] ;
853 -> 854 ;
855 [label="payment <= 4.0\ngini = 0.24\nsamples = 25\nvalue = [31, 5]\nclass = 0", fillcolor="#e99559"] ;
854 -> 855 ;
856 [label="news <= 2.0\ngini = 0.16\nsamples = 24\nvalue = [31, 3]\nclass = 0", fillcolor="#e88d4c"] ;
855 -> 856 ;
857 [label="wi <= 3.5\ngini = 0.11\nsamples = 23\nvalue = [31, 2]\nclass = 0", fillcolor="#e78946"] ;
856 -> 857 ;
858 [label="s <= 60.0\ngini = 0.5\nsamples = 2\nvalue = [1, 1]\nclass = 0", fillcolor="#ffffff"] ;
857 -> 858 ;
859 [label="gini = 0.0\nsamples = 1\nvalue = [0, 1]\nclass = 1", fillcolor="#399de5"] ;
858 -> 859 ;
860 [label="gini = 0.0\nsamples = 1\nvalue = [1, 0]\nclass = 0", fillcolor="#e58139"] ;
858 -> 860 ;
861 [label="specials <= 0.5\ngini = 0.06\nsamples = 21\nvalue = [30, 1]\nclass = 0", fillcolor="#e68540"] ;
857 -> 861 ;
862 [label="gini = 0.0\nsamples = 16\nvalue = [24, 0]\nclass = 0", fillcolor="#e58139"] ;
861 -> 862 ;
863 [label="option <= 0.5\ngini = 0.24\nsamples = 5\nvalue = [6, 1]\nclass = 0", fillcolor="#e9965a"] ;
861 -> 863 ;
864 [label="gini = 0.0\nsamples = 4\nvalue = [6, 0]\nclass = 0", fillcolor="#e58139"] ;
863 -> 864 ;
865 [label="gini = 0.0\nsamples = 1\nvalue = [0, 1]\nclass = 1", fillcolor="#399de5"] ;
863 -> 865 ;
866 [label="gini = 0.0\nsamples = 1\nvalue = [0, 1]\nclass = 1", fillcolor="#399de5"] ;
856 -> 866 ;
867 [label="gini = 0.0\nsamples = 1\nvalue = [0, 2]\nclass = 1", fillcolor="#399de5"] ;
855 -> 867 ;
868 [label="set <= 1.0\ngini = 0.32\nsamples = 5\nvalue = [1, 4]\nclass = 1", fillcolor="#6ab6ec"] ;
854 -> 868 ;
869 [label="gini = 0.0\nsamples = 4\nvalue = [0, 4]\nclass = 1", fillcolor="#399de5"] ;
868 -> 869 ;
870 [label="gini = 0.0\nsamples = 1\nvalue = [1, 0]\nclass = 0", fillcolor="#e58139"] ;
868 -> 870 ;
871 [label="mm <= 0.5\ngini = 0.35\nsamples = 5\nvalue = [2, 7]\nclass = 1", fillcolor="#72b9ec"] ;
853 -> 871 ;
872 [label="gini = 0.0\nsamples = 2\nvalue = [2, 0]\nclass = 0", fillcolor="#e58139"] ;
871 -> 872 ;
873 [label="gini = 0.0\nsamples = 3\nvalue = [0, 7]\nclass = 1", fillcolor="#399de5"] ;
871 -> 873 ;
874 [label="gini = 0.0\nsamples = 12\nvalue = [17, 0]\nclass = 0", fillcolor="#e58139"] ;
852 -> 874 ;
875 [label="gini = 0.0\nsamples = 4\nvalue = [0, 7]\nclass = 1", fillcolor="#399de5"] ;
851 -> 875 ;
876 [label="gini = 0.0\nsamples = 7\nvalue = [0, 9]\nclass = 1", fillcolor="#399de5"] ;
778 -> 876 ;
877 [label="gini = 0.0\nsamples = 4\nvalue = [0, 9]\nclass = 1", fillcolor="#399de5"] ;
777 -> 877 ;
878 [label="gini = 0.0\nsamples = 5\nvalue = [0, 6]\nclass = 1", fillcolor="#399de5"] ;
776 -> 878 ;
879 [label="email <= 0.5\ngini = 0.18\nsamples = 55\nvalue = [8, 72]\nclass = 1", fillcolor="#4fa8e8"] ;
673 -> 879 ;
880 [label="question <= 0.5\ngini = 0.46\nsamples = 7\nvalue = [7, 4]\nclass = 0", fillcolor="#f4c9aa"] ;
879 -> 880 ;
881 [label="decide <= 0.5\ngini = 0.44\nsamples = 4\nvalue = [2, 4]\nclass = 1", fillcolor="#9ccef2"] ;
880 -> 881 ;
882 [label="ad <= 3.5\ngini = 0.32\nsamples = 3\nvalue = [1, 4]\nclass = 1", fillcolor="#6ab6ec"] ;
881 -> 882 ;
883 [label="gini = 0.0\nsamples = 2\nvalue = [0, 4]\nclass = 1", fillcolor="#399de5"] ;
882 -> 883 ;
884 [label="gini = 0.0\nsamples = 1\nvalue = [1, 0]\nclass = 0", fillcolor="#e58139"] ;
882 -> 884 ;
885 [label="gini = 0.0\nsamples = 1\nvalue = [1, 0]\nclass = 0", fillcolor="#e58139"] ;
881 -> 885 ;
886 [label="gini = 0.0\nsamples = 3\nvalue = [5, 0]\nclass = 0", fillcolor="#e58139"] ;
880 -> 886 ;
887 [label="city <= 3.0\ngini = 0.03\nsamples = 48\nvalue = [1, 68]\nclass = 1", fillcolor="#3c9ee5"] ;
879 -> 887 ;
888 [label="gini = 0.0\nsamples = 47\nvalue = [0, 68]\nclass = 1", fillcolor="#399de5"] ;
887 -> 888 ;
889 [label="gini = 0.0\nsamples = 1\nvalue = [1, 0]\nclass = 0", fillcolor="#e58139"] ;
887 -> 889 ;
890 [label="daren <= 0.5\ngini = 0.43\nsamples = 132\nvalue = [66, 144]\nclass = 1", fillcolor="#94caf1"] ;
672 -> 890 ;
891 [label="just <= 1.5\ngini = 0.29\nsamples = 109\nvalue = [30, 144]\nclass = 1", fillcolor="#62b1ea"] ;
890 -> 891 ;
892 [label="except <= 0.5\ngini = 0.23\nsamples = 101\nvalue = [21, 140]\nclass = 1", fillcolor="#57ace9"] ;
891 -> 892 ;
893 [label="susan <= 0.5\ngini = 0.16\nsamples = 96\nvalue = [13, 140]\nclass = 1", fillcolor="#4ba6e7"] ;
892 -> 893 ;
894 [label="low <= 3.5\ngini = 0.1\nsamples = 92\nvalue = [8, 140]\nclass = 1", fillcolor="#44a3e6"] ;
893 -> 894 ;
895 [label="different <= 1.5\ngini = 0.06\nsamples = 83\nvalue = [4, 131]\nclass = 1", fillcolor="#3fa0e6"] ;
894 -> 895 ;
896 [label="origination <= 1.5\ngini = 0.04\nsamples = 82\nvalue = [3, 131]\nclass = 1", fillcolor="#3e9fe6"] ;
895 -> 896 ;
897 [label="victor <= 0.5\ngini = 0.03\nsamples = 81\nvalue = [2, 131]\nclass = 1", fillcolor="#3c9ee5"] ;
896 -> 897 ;
898 [label="super <= 0.5\ngini = 0.02\nsamples = 80\nvalue = [1, 131]\nclass = 1", fillcolor="#3b9ee5"] ;
897 -> 898 ;
899 [label="gini = 0.0\nsamples = 73\nvalue = [0, 125]\nclass = 1", fillcolor="#399de5"] ;
898 -> 899 ;
900 [label="focused <= 5.5\ngini = 0.24\nsamples = 7\nvalue = [1, 6]\nclass = 1", fillcolor="#5aade9"] ;
898 -> 900 ;
901 [label="gini = 0.0\nsamples = 6\nvalue = [0, 6]\nclass = 1", fillcolor="#399de5"] ;
900 -> 901 ;
902 [label="gini = 0.0\nsamples = 1\nvalue = [1, 0]\nclass = 0", fillcolor="#e58139"] ;
900 -> 902 ;
903 [label="gini = 0.0\nsamples = 1\nvalue = [1, 0]\nclass = 0", fillcolor="#e58139"] ;
897 -> 903 ;
904 [label="gini = 0.0\nsamples = 1\nvalue = [1, 0]\nclass = 0", fillcolor="#e58139"] ;
896 -> 904 ;
905 [label="gini = 0.0\nsamples = 1\nvalue = [1, 0]\nclass = 0", fillcolor="#e58139"] ;
895 -> 905 ;
906 [label="d <= 133.0\ngini = 0.43\nsamples = 9\nvalue = [4, 9]\nclass = 1", fillcolor="#91c9f1"] ;
894 -> 906 ;
907 [label="gini = 0.0\nsamples = 2\nvalue = [3, 0]\nclass = 0", fillcolor="#e58139"] ;
906 -> 907 ;
908 [label="her <= 5.0\ngini = 0.18\nsamples = 7\nvalue = [1, 9]\nclass = 1", fillcolor="#4fa8e8"] ;
906 -> 908 ;
909 [label="gini = 0.0\nsamples = 1\nvalue = [1, 0]\nclass = 0", fillcolor="#e58139"] ;
908 -> 909 ;
910 [label="gini = 0.0\nsamples = 6\nvalue = [0, 9]\nclass = 1", fillcolor="#399de5"] ;
908 -> 910 ;
911 [label="gini = 0.0\nsamples = 4\nvalue = [5, 0]\nclass = 0", fillcolor="#e58139"] ;
893 -> 911 ;
912 [label="gini = 0.0\nsamples = 5\nvalue = [8, 0]\nclass = 0", fillcolor="#e58139"] ;
892 -> 912 ;
913 [label="god <= 0.5\ngini = 0.43\nsamples = 8\nvalue = [9, 4]\nclass = 0", fillcolor="#f1b991"] ;
891 -> 913 ;
914 [label="gini = 0.0\nsamples = 5\nvalue = [8, 0]\nclass = 0", fillcolor="#e58139"] ;
913 -> 914 ;
915 [label="an <= 49.5\ngini = 0.32\nsamples = 3\nvalue = [1, 4]\nclass = 1", fillcolor="#6ab6ec"] ;
913 -> 915 ;
916 [label="gini = 0.0\nsamples = 2\nvalue = [0, 4]\nclass = 1", fillcolor="#399de5"] ;
915 -> 916 ;
917 [label="gini = 0.0\nsamples = 1\nvalue = [1, 0]\nclass = 0", fillcolor="#e58139"] ;
915 -> 917 ;
